1258 200
handsome 0.17156382 0.28208303 0.052788727 -0.0036046584 -0.03648161 0.18806629 0.042708818 -0.03510519 -0.020959314 -0.025319885 0.011299807 0.08681916 -0.2103867 0.17964919 -0.18173575 0.12281288 0.09484645 -0.06577839 -0.028877473 0.24330063 -0.11467281 0.13962372 -0.002240867 -0.249628 -0.18755342 0.2762651 -0.2012244 -0.04852528 -0.1510157 -0.09710396 0.07888191 0.18682486 0.11450692 -0.033470552 -0.09392463 0.08788349 0.12657748 -0.026204927 -0.13335137 -0.084178776 0.18690275 -0.2149151 0.18313964 -0.11827786 0.028967226 0.02292478 -0.11860247 0.06968744 -0.042751428 0.010508885 0.0141908 0.21553846 -0.12673329 -0.11830552 -0.22047651 0.19159502 0.16576964 -0.105340585 -0.05303001 0.031050662 0.019251876 -0.06776066 -0.082113095 0.09738137 0.15749286 -0.01481146 0.29759592 -0.18191153 0.07833788 -0.3119492 -0.07130904 0.12199021 -0.09245353 0.1989742 -0.076837145 -0.24338977 -0.20172302 -0.33990285 0.10353283 0.0075812526 -0.1936502 0.056129333 0.20266192 -0.113187246 0.0069017923 -0.19479917 -0.13477586 0.029021662 -0.1795027 0.109130196 -0.03592306 0.1041991 -0.06963455 0.013467911 0.016535755 -0.14868286 0.09899262 -0.040365413 0.020421576 0.15625067 0.082468286 -0.13231029 0.031157853 0.19382294 0.10864015 0.19723436 -0.05197939 -0.06615707 0.1467682 -0.116301365 0.19905417 0.10382037 0.124472626 -0.17517774 0.222923 0.17931576 0.12170706 0.051045563 -0.029822769 0.043652523 -0.033201136 0.04946184 -0.12131747 0.12911229 -0.25599498 -0.14948387 0.05121677 -0.26228324 -0.20928837 -0.022046866 0.102953814 -0.07330414 0.03635917 0.0630081 0.081783086 -0.05308446 -0.09729754 0.04385508 0.05729495 0.082079016 0.23514855 0.021078762 0.121469535 -0.017288849 0.08116319 -0.018645287 -0.04633195 -0.22324 -0.13636777 0.13587683 0.058957975 0.012610627 -0.25138792 -0.07337248 0.0893198 0.12941065 -0.0040244525 0.11461477 -0.12655035 0.10897835 0.16976577 -0.072847374 -0.14893153 0.12875865 0.15533182 -0.17455189 0.02878997 -0.058041252 -0.17345546 -0.080364175 0.09031032 -0.07756218 0.115117945 0.04516484 -0.021617804 0.02225298 0.28576314 -0.1492709 -0.106335394 -0.1440396 -0.21377337 0.034864727 -0.10386679 0.0025724042 -0.0652289 0.17428736 0.08963196 -0.015193446 0.07119245 0.0921415 -0.057101727 -0.13910961 0.08074576 -0.061868083 -0.13119492 0.13718131 0.14981203 -0.050550845 0.113021165 -0.003701739
turkish 0.17276584 0.29014695 0.059278816 -0.0058065765 -0.039241433 0.19256796 0.041725315 -0.039667528 -0.019048372 -0.021224659 0.008000301 0.08528307 -0.21601866 0.18250643 -0.18460336 0.12596346 0.096488155 -0.06437622 -0.033679534 0.25171578 -0.114074394 0.14720681 -0.0023312536 -0.25463957 -0.19330406 0.28494385 -0.20440675 -0.04912156 -0.15952097 -0.09546174 0.07872519 0.18949254 0.11683414 -0.030745812 -0.09246738 0.092245266 0.12772141 -0.026679603 -0.13226184 -0.086104415 0.19202214 -0.22413254 0.18364954 -0.11759848 0.028362436 0.021156916 -0.120596915 0.07337886 -0.04750185 0.0072534904 0.017442971 0.22143763 -0.12983067 -0.12117693 -0.22762102 0.19555318 0.1678861 -0.107812844 -0.055486955 0.02642254 0.017546013 -0.07239606 -0.0876464 0.096691184 0.16316165 -0.018416995 0.305869 -0.1868598 0.077812746 -0.31502402 -0.07616649 0.12623692 -0.09255601 0.20260645 -0.08121355 -0.25010955 -0.2096788 -0.35167402 0.10863985 0.007104448 -0.19574133 0.053425655 0.2116765 -0.118888125 0.007553523 -0.20066264 -0.13871518 0.03236512 -0.18242933 0.114015244 -0.038429853 0.10675099 -0.0695846 0.012544626 0.017084416 -0.1511569 0.10074541 -0.04390105 0.015280529 0.16346227 0.083014555 -0.13484477 0.031111177 0.19783044 0.11231006 0.20539497 -0.048592165 -0.06533251 0.14516221 -0.123781964 0.20443217 0.10446853 0.12760694 -0.1794025 0.22716074 0.18599962 0.12783907 0.054820873 -0.03344807 0.042581197 -0.038528334 0.05345753 -0.12412214 0.13301046 -0.2649649 -0.15158369 0.051846333 -0.26824057 -0.21320902 -0.025276817 0.10761192 -0.07815689 0.033592176 0.06576444 0.08030136 -0.052071035 -0.100614585 0.047099728 0.058440257 0.08279208 0.24546698 0.019667672 0.12176496 -0.019222548 0.08317886 -0.01853674 -0.04820786 -0.2245213 -0.14099525 0.13863298 0.060899902 0.010442058 -0.25790992 -0.07561521 0.09044909 0.1322524 -0.0015775994 0.12147488 -0.12834589 0.1148743 0.1743471 -0.075687796 -0.15246435 0.13318303 0.16023202 -0.17633311 0.027362026 -0.058899183 -0.18222538 -0.07947209 0.09368232 -0.07962495 0.11284573 0.049827 -0.020897638 0.023309002 0.29219896 -0.14882466 -0.10927514 -0.14734037 -0.21678309 0.03511134 -0.103134416 0.0037706448 -0.06780336 0.17660436 0.09512307 -0.01432497 0.07520577 0.09453091 -0.057948302 -0.14398241 0.08353837 -0.06606926 -0.13513558 0.1416597 0.15171768 -0.05201552 0.11426975 -0.0004814857
turkey 0.15340407 0.2547913 0.052112475 -0.001985362 -0.03491073 0.1691555 0.034118284 -0.034143757 -0.017264552 -0.023155782 0.007407058 0.076424725 -0.19265229 0.16198353 -0.16070504 0.11067614 0.085768715 -0.059117742 -0.030125713 0.22274776 -0.10122717 0.12986979 0.0011556632 -0.22635953 -0.16880934 0.25105694 -0.18388775 -0.041381624 -0.139988 -0.08667229 0.07012942 0.16829447 0.10762846 -0.02727355 -0.08182696 0.079701506 0.11299609 -0.024844745 -0.120268 -0.07625191 0.16911471 -0.1942651 0.1627582 -0.104374066 0.023815665 0.022313172 -0.106818326 0.06436876 -0.038339905 0.006753373 0.012504442 0.19543873 -0.11298861 -0.108612634 -0.19971967 0.17291388 0.14846888 -0.09509028 -0.04838422 0.026575146 0.015064032 -0.064779885 -0.075901866 0.088475615 0.1442797 -0.016673103 0.26858833 -0.16511208 0.070229955 -0.2820907 -0.0657268 0.10903447 -0.08279811 0.17868526 -0.06724515 -0.22259234 -0.18596287 -0.30929294 0.09677303 0.00591648 -0.17522842 0.051237702 0.1860558 -0.10521045 0.0077206236 -0.17843376 -0.11933435 0.026881147 -0.16129819 0.09994001 -0.032861587 0.097522035 -0.059408464 0.012374788 0.012440622 -0.13455789 0.08966529 -0.03535919 0.015741045 0.14573506 0.07259881 -0.11936748 0.026062455 0.17665231 0.09723175 0.18035087 -0.044093367 -0.05660485 0.131808 -0.10637464 0.17985518 0.09001566 0.109677196 -0.15795918 0.20213178 0.16435482 0.11207691 0.045528617 -0.026667928 0.037829973 -0.031020889 0.047599617 -0.11035449 0.11787398 -0.23115177 -0.13165009 0.046737354 -0.2350681 -0.18767361 -0.021212563 0.09659247 -0.07084908 0.03260105 0.059739422 0.0703106 -0.04255623 -0.08800398 0.036956713 0.055175092 0.07388194 0.21472019 0.01840915 0.110439256 -0.015625527 0.07369197 -0.018401029 -0.045903865 -0.20023838 -0.12681888 0.12555304 0.05442571 0.011120958 -0.22966866 -0.06932146 0.08296862 0.117619336 -0.0011904422 0.10569678 -0.11230381 0.100808345 0.15500428 -0.06596492 -0.1383387 0.11645071 0.13989781 -0.15751646 0.025990294 -0.04978773 -0.16024713 -0.06848934 0.07970977 -0.06793205 0.10214457 0.042544156 -0.016687807 0.017785946 0.25923145 -0.13127573 -0.09676562 -0.1328235 -0.1931977 0.029911168 -0.095378555 0.0067167664 -0.057599142 0.15607774 0.08257201 -0.010589472 0.06555299 0.08289153 -0.05350716 -0.1278977 0.074643515 -0.056037456 -0.11743725 0.12458538 0.13545577 -0.042885415 0.10282004 -0.0008145483
idlib 0.15389067 0.25113618 0.047608487 -0.004472398 -0.030705102 0.16694528 0.034137793 -0.030003617 -0.020381352 -0.01961251 0.008494766 0.075850636 -0.1902756 0.15763944 -0.1610137 0.11175895 0.08512997 -0.059226893 -0.030047815 0.21868174 -0.098449185 0.13040826 0.0023062634 -0.22356783 -0.16876085 0.24518752 -0.18054609 -0.04320039 -0.13827045 -0.08696286 0.06799062 0.1680979 0.105839245 -0.028881533 -0.082671486 0.0777846 0.11367633 -0.023297757 -0.116587915 -0.07510528 0.16793919 -0.19527254 0.16018406 -0.10322922 0.023694055 0.019911384 -0.10424306 0.062236063 -0.041355737 0.008782097 0.011623717 0.19369394 -0.11061361 -0.10646481 -0.19649954 0.17338681 0.14761752 -0.094738044 -0.048672076 0.022565357 0.015330612 -0.0616975 -0.07809227 0.084856346 0.14137857 -0.017399607 0.26403558 -0.16556466 0.0697084 -0.27791283 -0.06558875 0.11050399 -0.08306757 0.17766264 -0.06721818 -0.2167273 -0.18391135 -0.30307838 0.09626539 0.004027532 -0.1702052 0.04601429 0.18169498 -0.104226895 0.0055260146 -0.17446275 -0.118929945 0.027700948 -0.15995003 0.099927045 -0.032716174 0.095343 -0.06281775 0.014656823 0.012169358 -0.12953572 0.087784156 -0.03493437 0.01291297 0.14504083 0.07028481 -0.12083857 0.02459372 0.1747339 0.09659245 0.1776336 -0.044133928 -0.057821937 0.12987371 -0.1067741 0.17733666 0.09079248 0.11098141 -0.15710604 0.2001533 0.16430037 0.111870036 0.04455719 -0.02618115 0.036358103 -0.034326173 0.046121858 -0.109234914 0.116141446 -0.23164062 -0.13382214 0.04247183 -0.2330869 -0.19045657 -0.019265201 0.09324105 -0.07099743 0.030087478 0.056732476 0.07066327 -0.045622114 -0.08622181 0.040278234 0.05110812 0.07535034 0.21373531 0.016531505 0.10646957 -0.017756565 0.07281418 -0.020413224 -0.045762595 -0.19476415 -0.12169027 0.12053693 0.051359177 0.010658838 -0.22399697 -0.06743172 0.080551535 0.1152311 -0.0029850826 0.10148213 -0.1132851 0.09828836 0.15417983 -0.06552867 -0.13682197 0.1138677 0.13785972 -0.15586436 0.02717155 -0.049199197 -0.15958071 -0.06835708 0.0802507 -0.06769089 0.10098784 0.039203923 -0.0193485 0.02184402 0.25715294 -0.13307801 -0.09664321 -0.13259794 -0.18915641 0.033411466 -0.09347711 0.00626271 -0.05685039 0.1543167 0.08119188 -0.013186737 0.06633166 0.08108725 -0.04880952 -0.12545645 0.073784225 -0.05854448 -0.11790306 0.121324755 0.13322629 -0.045399442 0.10321134 -0.0026177727
army 0.12714644 0.21377118 0.04057632 -0.002755499 -0.0288815 0.14072244 0.032749984 -0.029197041 -0.017123038 -0.018148428 0.008293153 0.066760264 -0.16243386 0.13448137 -0.13494258 0.09296122 0.0683288 -0.048234537 -0.024203947 0.18537177 -0.082451135 0.10744702 0.00075458386 -0.18925284 -0.14148183 0.2094056 -0.15245672 -0.03514032 -0.113690965 -0.07203883 0.057334464 0.13965558 0.08959477 -0.024337053 -0.070324786 0.06686588 0.09241666 -0.021497222 -0.09921668 -0.064831965 0.13860992 -0.16378947 0.13842863 -0.08810619 0.019385215 0.019118214 -0.08777151 0.052783858 -0.03409213 0.005646492 0.009095105 0.16512567 -0.09333737 -0.09248159 -0.1683159 0.14446397 0.12624368 -0.077420704 -0.042607546 0.019916343 0.014971522 -0.052107684 -0.06458655 0.075500004 0.1200655 -0.014985118 0.22742702 -0.13756801 0.05848501 -0.23394774 -0.057753205 0.0898975 -0.06929128 0.1486135 -0.059393577 -0.18624797 -0.15449955 -0.26100412 0.07941889 0.006357243 -0.14815967 0.040795982 0.15709668 -0.088004395 0.0025556723 -0.15024751 -0.10029114 0.02299839 -0.13499627 0.085734606 -0.027474059 0.08126979 -0.05016679 0.008941068 0.009191171 -0.109240234 0.07489463 -0.029363375 0.014915218 0.11973846 0.059431072 -0.10186078 0.024661373 0.14714019 0.08493883 0.15174171 -0.037860617 -0.052173007 0.11183954 -0.08939996 0.15090421 0.07810683 0.09416601 -0.13191254 0.16889468 0.13805778 0.093472876 0.036775455 -0.024134109 0.03189509 -0.030261487 0.03538764 -0.08826935 0.0979146 -0.19638538 -0.112434134 0.036111534 -0.19822064 -0.1607663 -0.015751284 0.07692282 -0.060722478 0.024707507 0.04869693 0.0619975 -0.039748657 -0.07267591 0.03518531 0.044648584 0.060807556 0.17648114 0.01572473 0.09121879 -0.012392547 0.060341284 -0.01758487 -0.035873905 -0.16706292 -0.10518914 0.1054774 0.046100747 0.007954622 -0.18945798 -0.055438735 0.06565893 0.09757072 -0.0049228654 0.08909519 -0.09664042 0.0846301 0.12740825 -0.0556825 -0.11502798 0.09952178 0.11919726 -0.13138837 0.019502588 -0.045081355 -0.1362145 -0.057637874 0.0682311 -0.06115814 0.08444553 0.034139436 -0.016707655 0.017685292 0.21738398 -0.10998997 -0.078779705 -0.11174269 -0.16259527 0.024148254 -0.079675086 0.006817227 -0.047647066 0.13018043 0.06696775 -0.009463851 0.0544127 0.06992576 -0.043324217 -0.107274234 0.06199881 -0.050819997 -0.100589275 0.102453895 0.11079776 -0.036622383 0.083099246 -0.0015910803
god 0.15856119 0.26016492 0.048829522 -0.0024092614 -0.030775761 0.17381321 0.03938596 -0.033190712 -0.020128516 -0.019244976 0.011361262 0.07977868 -0.19594404 0.16239981 -0.16932298 0.114125885 0.08932704 -0.05925481 -0.031905986 0.22489892 -0.103273384 0.13037123 -0.00013016736 -0.22941875 -0.17136931 0.25694028 -0.18834418 -0.045684855 -0.14192438 -0.090210445 0.06937178 0.17322902 0.106816344 -0.028818782 -0.08536161 0.08349938 0.11642138 -0.028836345 -0.12344124 -0.07860265 0.1747343 -0.19965528 0.16645378 -0.11071767 0.028667051 0.022624351 -0.112011336 0.06430883 -0.038610537 0.009480909 0.015381351 0.20174006 -0.11547866 -0.10889309 -0.20484307 0.17654188 0.15477322 -0.09855822 -0.04988341 0.023655977 0.015896132 -0.062715955 -0.079727374 0.088013195 0.14600009 -0.016025303 0.272388 -0.16794364 0.07284465 -0.2858538 -0.06597743 0.11395052 -0.08758735 0.18528856 -0.07431426 -0.2269255 -0.1889781 -0.31474438 0.09773366 0.006231838 -0.18111877 0.05142082 0.1887624 -0.10272773 0.006048944 -0.18020381 -0.12555103 0.029148212 -0.16515504 0.10389576 -0.036427565 0.100151055 -0.06376534 0.010959287 0.01210562 -0.13688946 0.09218518 -0.04146299 0.016367232 0.14651844 0.074250564 -0.12681575 0.027238306 0.17985888 0.10164723 0.18677646 -0.046182524 -0.062886044 0.13591722 -0.1116665 0.18300843 0.09562714 0.114450045 -0.16350761 0.20728588 0.1690946 0.11670018 0.04652655 -0.030282933 0.041531064 -0.035579823 0.04371703 -0.10987375 0.11770585 -0.2374018 -0.13560545 0.04669735 -0.2408899 -0.19668247 -0.017532144 0.09579198 -0.07012165 0.031606898 0.059790917 0.075476624 -0.046098202 -0.090608776 0.04200984 0.052863896 0.078279324 0.22102353 0.018462908 0.114643045 -0.01867866 0.07539662 -0.016713226 -0.044026647 -0.20732786 -0.12821712 0.1290576 0.053858563 0.013634326 -0.23700023 -0.07127144 0.08228828 0.12058543 -0.005123059 0.108989604 -0.117938206 0.101715915 0.16067147 -0.06747334 -0.14141887 0.119798735 0.14083159 -0.15939118 0.027252078 -0.05360885 -0.1612211 -0.07194336 0.08297568 -0.07047671 0.10508884 0.041418944 -0.017007062 0.018517558 0.26671654 -0.13628533 -0.09902232 -0.1376277 -0.19564304 0.033575583 -0.09605409 0.005155134 -0.061822597 0.15819365 0.087720715 -0.012468198 0.069336034 0.082564525 -0.054083575 -0.1268253 0.079307854 -0.060387857 -0.12115115 0.12857452 0.13504928 -0.045778595 0.10409228 -0.0007665947
people 0.18213087 0.3010442 0.05985809 -0.0038491494 -0.03937466 0.20048471 0.043484967 -0.0391684 -0.021467239 -0.022663994 0.011409592 0.09265063 -0.22541322 0.1897286 -0.1916601 0.13214083 0.10161767 -0.06766712 -0.036049236 0.26300603 -0.1230913 0.15587693 0.0013642211 -0.26420835 -0.20048742 0.2990683 -0.21542518 -0.052763086 -0.16708967 -0.10224617 0.0819126 0.20138466 0.1240215 -0.03658245 -0.09838406 0.091660485 0.13693158 -0.029475305 -0.14242962 -0.09155281 0.19970238 -0.23041229 0.19352052 -0.12670708 0.030393807 0.023559071 -0.12933275 0.07669804 -0.045448594 0.011460289 0.014351443 0.2341968 -0.13466801 -0.12906279 -0.23761934 0.20754902 0.176068 -0.114072755 -0.056295935 0.030304808 0.019162983 -0.07483599 -0.088995546 0.10667784 0.17036343 -0.016808484 0.31809473 -0.1960224 0.08587923 -0.334727 -0.07915219 0.13210833 -0.10027213 0.21068701 -0.08344143 -0.26377156 -0.21870649 -0.36764497 0.110093296 0.00844768 -0.20624478 0.05835187 0.21999352 -0.12243297 0.004444937 -0.21167497 -0.14188425 0.030970866 -0.19130701 0.12107983 -0.039589282 0.11684808 -0.074601084 0.016345479 0.017361933 -0.15546215 0.10192401 -0.044936053 0.021594957 0.17303154 0.0841006 -0.1444155 0.028958743 0.207028 0.118027754 0.21545945 -0.054500084 -0.071626425 0.15447994 -0.12964503 0.21509369 0.10884983 0.13211685 -0.19038506 0.23670264 0.19279742 0.13397902 0.056137145 -0.031749144 0.043742653 -0.036606528 0.05400591 -0.12807061 0.13768685 -0.27461013 -0.15695459 0.054922774 -0.27882394 -0.22646376 -0.021526566 0.113312915 -0.08390917 0.039649975 0.06734728 0.08579236 -0.052133113 -0.104445405 0.047138404 0.06152308 0.09158986 0.25270692 0.020619735 0.12895828 -0.021765932 0.08665355 -0.023740862 -0.050507005 -0.23832223 -0.14411853 0.1497674 0.06498835 0.013469625 -0.27152863 -0.080311835 0.094255686 0.14030126 -0.002806783 0.12581894 -0.13342953 0.11954205 0.18360013 -0.08155446 -0.16190068 0.14077355 0.1673367 -0.18279798 0.03189291 -0.059819654 -0.18932231 -0.082718305 0.09367622 -0.0860327 0.12255815 0.0490087 -0.022466594 0.025134934 0.3102624 -0.15585221 -0.11416651 -0.15582229 -0.22896294 0.03529307 -0.11105242 0.0066664405 -0.06758227 0.18254977 0.10052707 -0.0152756795 0.080065824 0.099543765 -0.0628918 -0.14852284 0.08959332 -0.06745523 -0.14240919 0.14526348 0.1612468 -0.055096105 0.12021701 -0.004425065
syria 0.14945802 0.2490722 0.048641764 -0.00080108887 -0.029636098 0.16223228 0.037802514 -0.029382916 -0.019847976 -0.022352276 0.008984831 0.07510419 -0.18509556 0.15392035 -0.160458 0.108505234 0.08363171 -0.05445343 -0.030793821 0.21399316 -0.0988238 0.12443182 1.4099172e-05 -0.21847183 -0.16378233 0.24504867 -0.1787207 -0.042117562 -0.13448812 -0.086204074 0.06580424 0.16259417 0.10201134 -0.029349612 -0.07846439 0.07552471 0.10887456 -0.02311695 -0.116628565 -0.07389962 0.16310388 -0.18774961 0.16007878 -0.099561244 0.027266657 0.019877816 -0.10507741 0.06385464 -0.03797709 0.006100077 0.0136314845 0.19409978 -0.10942363 -0.10696044 -0.1907577 0.16874696 0.14419656 -0.0910894 -0.04694763 0.023969214 0.014705327 -0.06113839 -0.07697469 0.08273966 0.13924164 -0.016988486 0.2615692 -0.15826847 0.0693928 -0.2746626 -0.062447794 0.108190134 -0.07918453 0.17536843 -0.067975596 -0.21652192 -0.18097855 -0.30211878 0.09457771 0.0033557145 -0.17085877 0.047153763 0.18046138 -0.09877758 0.0063388837 -0.1695758 -0.119397946 0.026029281 -0.15880528 0.09848701 -0.03293922 0.091411814 -0.061027348 0.012768203 0.014016123 -0.12696686 0.08564593 -0.03613813 0.014607257 0.14074974 0.07047676 -0.11747796 0.027030462 0.17248419 0.09730626 0.17572771 -0.04588786 -0.058599353 0.12422633 -0.10390087 0.17214958 0.089 0.11024132 -0.15403338 0.1919962 0.16095534 0.10916576 0.04545015 -0.025850065 0.038306154 -0.030772155 0.04199887 -0.10543883 0.11217446 -0.22769305 -0.12809622 0.04376035 -0.22925857 -0.18605803 -0.021718739 0.08996965 -0.06568661 0.02923919 0.055919774 0.07065619 -0.042007048 -0.08597837 0.036179718 0.05286564 0.07075431 0.21005784 0.01815994 0.10358242 -0.015737435 0.07318244 -0.017989941 -0.043835938 -0.19326875 -0.121811606 0.12287202 0.05268006 0.00929292 -0.22150634 -0.06452198 0.079683624 0.115959145 -0.0027451317 0.104580805 -0.10976241 0.09404235 0.15098196 -0.06784873 -0.13221283 0.11588294 0.1375087 -0.14922854 0.022606451 -0.051325243 -0.15537906 -0.06790269 0.07902585 -0.07017423 0.09591671 0.039891805 -0.020126516 0.020101007 0.2545289 -0.12953454 -0.095466 -0.12801725 -0.18451825 0.032649234 -0.08821073 0.006212121 -0.054358073 0.15118618 0.08020686 -0.012482551 0.0653686 0.08073335 -0.04955513 -0.123520136 0.07301301 -0.057305533 -0.113249384 0.117354676 0.13011527 -0.040918395 0.09955451 -0.0024707592
syrian 0.12187903 0.20050375 0.041153636 -0.0013180531 -0.025313945 0.1318879 0.028789967 -0.02375864 -0.016678048 -0.01861186 0.00547638 0.06335135 -0.15404446 0.12797137 -0.1272476 0.08902314 0.06459793 -0.047480434 -0.020910416 0.1736033 -0.08096258 0.10047531 0.0019935328 -0.17643116 -0.13268593 0.19639942 -0.14625552 -0.034183897 -0.11079061 -0.07051864 0.055260617 0.13416144 0.0828454 -0.021835886 -0.06749189 0.06275786 0.090649 -0.018984566 -0.09319306 -0.061257727 0.1314614 -0.15621626 0.1269331 -0.08200413 0.021836938 0.015275699 -0.08594397 0.04975656 -0.03423236 0.008768336 0.013212474 0.1567209 -0.08861389 -0.08684436 -0.15688841 0.13580757 0.12024719 -0.0752913 -0.037702423 0.019614387 0.01527934 -0.048137486 -0.061370514 0.07091626 0.11467959 -0.0127977785 0.21458386 -0.13271685 0.054169506 -0.22354622 -0.055114295 0.08774809 -0.06369644 0.14430374 -0.0557163 -0.1766325 -0.14739195 -0.24551614 0.07351785 0.0018540286 -0.13595904 0.036482707 0.14977205 -0.08271469 0.005416024 -0.14211611 -0.095866434 0.022809148 -0.12638643 0.08231558 -0.030162595 0.07441166 -0.047132287 0.00764815 0.011926098 -0.10297974 0.07125095 -0.030188931 0.010085863 0.11473821 0.05813058 -0.09550771 0.02055074 0.14150877 0.08178142 0.14450532 -0.037440807 -0.04853457 0.10604007 -0.08732536 0.14136457 0.07271559 0.08964555 -0.12887202 0.15660077 0.12766282 0.086506516 0.038363386 -0.022513632 0.027845811 -0.025408883 0.038132522 -0.08448556 0.09164742 -0.1865836 -0.10905349 0.03563017 -0.18442905 -0.15009488 -0.018080808 0.07290189 -0.05293579 0.022726102 0.0470579 0.058960557 -0.034926385 -0.06729905 0.033405498 0.041403517 0.059686698 0.1701578 0.012012697 0.087637 -0.0143430745 0.05731146 -0.014016253 -0.035582673 -0.15796575 -0.09996674 0.10033138 0.041250654 0.0069285147 -0.18375187 -0.054670874 0.06410476 0.09396162 -0.0028060684 0.08429891 -0.08959018 0.07819641 0.12519737 -0.056992684 -0.10958658 0.09323129 0.112161465 -0.122751184 0.019351395 -0.0398724 -0.129533 -0.054213535 0.064384714 -0.053590346 0.07994113 0.032953 -0.01651473 0.017582403 0.20526087 -0.10594353 -0.078243785 -0.1064787 -0.15512341 0.023209127 -0.07522065 0.001379499 -0.044397324 0.12506622 0.0669492 -0.009379377 0.052748866 0.064535506 -0.039920155 -0.103233434 0.05894242 -0.046402168 -0.09497003 0.09886309 0.10619071 -0.03295598 0.08258981 0.00029558077
joseph 0.14128251 0.22973484 0.042964242 -0.0046071145 -0.02693464 0.1576223 0.032922205 -0.029785253 -0.016932895 -0.019942224 0.008028284 0.06991294 -0.17525795 0.1461178 -0.15184167 0.10266246 0.07777179 -0.053256422 -0.029000325 0.20010304 -0.09600937 0.119920455 0.0009614938 -0.20677862 -0.15230373 0.22983168 -0.16556643 -0.03884025 -0.124933556 -0.07789767 0.06171399 0.15596984 0.09455709 -0.028158747 -0.07791825 0.074636504 0.106460825 -0.020907102 -0.10865626 -0.067231365 0.15199968 -0.17577325 0.15138017 -0.09847776 0.025831126 0.015807593 -0.097032435 0.05815764 -0.038978674 0.007905667 0.012872967 0.17781031 -0.105007 -0.10014282 -0.17925246 0.16023797 0.13624644 -0.08446585 -0.04077349 0.023565847 0.016789742 -0.059297726 -0.06919857 0.0804772 0.1324951 -0.012941511 0.244991 -0.15243761 0.066708095 -0.2558337 -0.061112452 0.10338637 -0.07788186 0.16348234 -0.066639535 -0.20155014 -0.1674209 -0.2827989 0.08763409 0.0055819857 -0.1600415 0.043251578 0.1716501 -0.09097325 0.003075815 -0.16189258 -0.112903304 0.026097674 -0.146627 0.0940927 -0.029160291 0.09042736 -0.055610314 0.015012476 0.014150191 -0.12275149 0.07934923 -0.037041396 0.015745487 0.13351828 0.064479016 -0.11362341 0.025487587 0.16159993 0.09233562 0.16208968 -0.040699255 -0.054820944 0.12038792 -0.09926367 0.16168278 0.08294488 0.1029937 -0.14881293 0.18430074 0.15154442 0.10213106 0.043572705 -0.023701465 0.037144758 -0.031070888 0.041429635 -0.09956565 0.10371992 -0.20912667 -0.12146621 0.038413372 -0.21469651 -0.17570518 -0.015965974 0.0889122 -0.064344324 0.032595433 0.051137045 0.068231985 -0.04360012 -0.08093833 0.03757714 0.04699655 0.06693695 0.19415092 0.016658004 0.10251394 -0.012992406 0.0652521 -0.017718319 -0.041898195 -0.18277864 -0.11437953 0.1122524 0.047581423 0.010778343 -0.20934357 -0.06214134 0.07291831 0.10914639 -0.003012857 0.09326979 -0.104492076 0.08913888 0.14172018 -0.060161408 -0.12679315 0.10917176 0.12454664 -0.14121376 0.021371074 -0.04931241 -0.14544037 -0.06343742 0.07094118 -0.064564995 0.09381689 0.0403735 -0.018584462 0.015599886 0.23863623 -0.12261494 -0.089395836 -0.12007541 -0.17311665 0.027751423 -0.08703372 0.0033897508 -0.05345823 0.14166354 0.07482262 -0.010146191 0.0613509 0.07293817 -0.05043115 -0.11585956 0.070335485 -0.053123835 -0.11033621 0.11578489 0.124553494 -0.041635614 0.09084047 -0.003871747
erdogan 0.12593533 0.20558332 0.040406063 -0.0032507607 -0.024279263 0.13706644 0.027004858 -0.02633368 -0.013677026 -0.015613068 0.006351501 0.061349597 -0.15436178 0.12908927 -0.13016625 0.08809314 0.06713331 -0.046304304 -0.021499993 0.17695013 -0.08230863 0.10501619 0.0017086654 -0.17951886 -0.13759871 0.19975647 -0.14414673 -0.0345904 -0.11223327 -0.06928951 0.057416238 0.13489039 0.085652195 -0.021059303 -0.06580964 0.06432123 0.092422895 -0.01808651 -0.094692186 -0.063648105 0.13659048 -0.15833887 0.129302 -0.08170673 0.0211536 0.015083452 -0.08606459 0.05098523 -0.033966396 0.0069239424 0.012839772 0.16009258 -0.08985458 -0.089774616 -0.16231023 0.139887 0.119510345 -0.077360265 -0.04096219 0.017755223 0.0124935275 -0.05022687 -0.062588 0.07040055 0.11625882 -0.009752287 0.21456964 -0.13364029 0.058815025 -0.22473744 -0.05355958 0.08791318 -0.06448528 0.14587708 -0.054261725 -0.17680319 -0.14722483 -0.24928647 0.07716995 0.0016316433 -0.14029293 0.040045664 0.14722571 -0.082499914 0.0031727916 -0.14454035 -0.09865361 0.018820368 -0.13100538 0.08187971 -0.029832946 0.07765001 -0.0494943 0.008695433 0.012010906 -0.10758419 0.06833632 -0.030931395 0.010676244 0.11556525 0.059501965 -0.09901118 0.021828866 0.14017093 0.08232807 0.14691179 -0.03881447 -0.05005182 0.1045531 -0.08604442 0.14357814 0.07191171 0.089228526 -0.12743172 0.16323233 0.13243553 0.08746246 0.03526745 -0.02528808 0.029832706 -0.02467208 0.035681933 -0.089404985 0.091578566 -0.1865938 -0.10872606 0.03397509 -0.18870775 -0.1546601 -0.017011074 0.075404815 -0.057327807 0.02602552 0.049061544 0.058431033 -0.03445311 -0.06771536 0.02995881 0.045022305 0.05907434 0.17439672 0.015790898 0.08639972 -0.010741938 0.061094318 -0.013233421 -0.03473295 -0.16145861 -0.10135923 0.097981736 0.041411106 0.008317546 -0.18545733 -0.05600191 0.062717006 0.09306134 -0.0014567799 0.08369142 -0.090794355 0.078572206 0.12678882 -0.056116715 -0.10930753 0.0925144 0.11242582 -0.12485962 0.017789457 -0.039072976 -0.12884186 -0.05621193 0.067087226 -0.057521164 0.07926899 0.033872597 -0.013507623 0.013516228 0.2113527 -0.10866865 -0.07821579 -0.1070234 -0.15296787 0.024673853 -0.072848484 0.0051256465 -0.044993132 0.12493672 0.069032095 -0.00954748 0.052516088 0.06665376 -0.04255168 -0.102054566 0.0626572 -0.04454646 -0.09735736 0.09978158 0.10716305 -0.035254885 0.07947254 -0.00083253393
russia 0.118799336 0.19506226 0.03813823 -0.0048059733 -0.027044795 0.1298821 0.02563812 -0.02456656 -0.015820604 -0.0143905915 0.0074784784 0.060045432 -0.14800611 0.12531379 -0.124032706 0.086913355 0.064583324 -0.044204384 -0.024742067 0.16731976 -0.07896038 0.10001529 -0.00037707007 -0.17474279 -0.12733696 0.19102046 -0.14231317 -0.031749316 -0.10932733 -0.06864336 0.05378055 0.12750824 0.08302606 -0.021550385 -0.062182568 0.061832286 0.086308174 -0.018691123 -0.09276252 -0.059380837 0.12907815 -0.15117133 0.12411311 -0.07962251 0.020176064 0.016181966 -0.08017983 0.050197903 -0.03360318 0.0069414177 0.008596725 0.15095368 -0.0864078 -0.08491015 -0.15327905 0.1321049 0.114004076 -0.07391527 -0.039400794 0.017302701 0.0130839655 -0.04974354 -0.06109158 0.06619402 0.10995729 -0.013151932 0.20719267 -0.12679447 0.052864604 -0.21425499 -0.050540503 0.08580484 -0.06411019 0.1376003 -0.05258805 -0.17027386 -0.14112149 -0.23798887 0.071676746 0.00373923 -0.1333123 0.03850557 0.14413449 -0.076709375 0.0023592345 -0.13696419 -0.094617255 0.018039752 -0.12203696 0.07701712 -0.026220432 0.07393717 -0.04753056 0.009840132 0.010723884 -0.1032786 0.06650475 -0.03095651 0.011030689 0.11176398 0.054830503 -0.094903514 0.02106126 0.13562307 0.07781339 0.13962667 -0.033984497 -0.044596694 0.09922595 -0.079740755 0.13649598 0.0727467 0.08700351 -0.1234658 0.155397 0.123648085 0.08366036 0.034485783 -0.020749316 0.028095553 -0.024736717 0.03615974 -0.083556086 0.09154248 -0.17808926 -0.10098744 0.032025196 -0.17886885 -0.14682084 -0.016058667 0.07205492 -0.052520424 0.02452003 0.046282526 0.0554626 -0.035666276 -0.06806096 0.029479686 0.04360658 0.056686193 0.16729403 0.012301491 0.08486691 -0.012702904 0.05459076 -0.01603666 -0.036186364 -0.15305632 -0.09363309 0.09645067 0.044341497 0.008999793 -0.1782356 -0.054901615 0.06327766 0.09122045 -0.0025020475 0.0810015 -0.08686151 0.07701683 0.12011584 -0.054929487 -0.10372205 0.090918 0.104347944 -0.120425634 0.021854442 -0.036928687 -0.120913476 -0.0528904 0.0593931 -0.05567911 0.077286184 0.03258249 -0.013025202 0.017743153 0.19911493 -0.1035245 -0.07381942 -0.10298624 -0.1490103 0.02395992 -0.072388716 0.0043343054 -0.047098726 0.11817402 0.06480796 -0.0078266375 0.049747787 0.06489702 -0.038767446 -0.09664996 0.058319986 -0.04275553 -0.08903986 0.0928555 0.104195535 -0.036662653 0.07831609 -0.0035366828
yusuf 0.13164997 0.21515489 0.042128272 -0.0024782186 -0.02550308 0.14407715 0.030733049 -0.028776338 -0.01842771 -0.019198403 0.008759038 0.06423322 -0.15770759 0.13674834 -0.13682675 0.09142022 0.071649455 -0.048913095 -0.026696973 0.18537351 -0.08780225 0.10886365 0.0016144825 -0.1859285 -0.14383432 0.2086202 -0.1512727 -0.03764685 -0.11825502 -0.07531043 0.059061676 0.14294258 0.08881796 -0.025482904 -0.06850868 0.06568804 0.09725289 -0.019510519 -0.10225522 -0.06495272 0.14374422 -0.1665075 0.13861161 -0.092074886 0.023693042 0.017073043 -0.09040315 0.05450332 -0.034052104 0.0051648356 0.011697668 0.16776378 -0.09667356 -0.08919476 -0.16598836 0.14358735 0.1279255 -0.07787512 -0.038502283 0.022561893 0.013291842 -0.05179251 -0.066848725 0.07525215 0.11927657 -0.0126898335 0.2261715 -0.13649188 0.058379117 -0.23837592 -0.05426657 0.09502635 -0.06939568 0.14941464 -0.060567662 -0.18540438 -0.15510044 -0.26064694 0.079338916 0.004952665 -0.14699912 0.038586363 0.1581559 -0.0865059 0.0018495006 -0.15008081 -0.0999866 0.02148586 -0.13719861 0.08685058 -0.02839556 0.0839411 -0.051417004 0.013564728 0.0092410715 -0.11143265 0.07575828 -0.030371131 0.011950021 0.123641856 0.058550064 -0.10505617 0.02092234 0.14587238 0.08451352 0.14978303 -0.036854267 -0.05006 0.11234548 -0.088393986 0.15045151 0.0761332 0.09538547 -0.1362163 0.17074405 0.13683194 0.09656624 0.03702389 -0.023309907 0.033586133 -0.028985437 0.03745688 -0.08939236 0.10046807 -0.19577333 -0.11264335 0.03790093 -0.20063023 -0.16135012 -0.01694295 0.08130472 -0.057941873 0.026288584 0.049902417 0.06221705 -0.039207038 -0.076335065 0.032149784 0.04331345 0.06433769 0.18312058 0.015988512 0.09302077 -0.012529783 0.06261302 -0.017821558 -0.03436363 -0.17034313 -0.10360222 0.105473876 0.04704944 0.008540339 -0.19582851 -0.054633897 0.067530744 0.09598184 -0.005224798 0.08525758 -0.09453396 0.08511731 0.13058746 -0.05846374 -0.11489806 0.09983928 0.114877865 -0.13243888 0.021510158 -0.041547857 -0.13232657 -0.060323045 0.0698983 -0.05841205 0.08588403 0.03521362 -0.014729141 0.014908587 0.21869895 -0.110648856 -0.07809771 -0.10996583 -0.15919214 0.026485553 -0.07596604 0.0024641475 -0.046872646 0.13137601 0.06769743 -0.011379852 0.053643283 0.06934689 -0.046453174 -0.10455603 0.062035948 -0.050589588 -0.10054528 0.10536831 0.11063545 -0.039965272 0.08613527 -0.0028181141
us 0.11835924 0.19457595 0.03790962 -0.002395609 -0.02414123 0.12853007 0.028606616 -0.022888778 -0.012598854 -0.016712936 0.009486768 0.056540832 -0.14794475 0.12250421 -0.12440693 0.08473768 0.064627126 -0.04145011 -0.02289062 0.16668904 -0.07661645 0.09843872 -0.0026650964 -0.17080009 -0.12760662 0.1911436 -0.13900615 -0.032040335 -0.107879564 -0.066412546 0.051981848 0.12876092 0.08030219 -0.02396174 -0.06353566 0.061829515 0.08853899 -0.017417632 -0.08962644 -0.05708199 0.12909815 -0.15086631 0.12581271 -0.08034568 0.020093886 0.017123198 -0.08019693 0.05047113 -0.030533958 0.0076062107 0.007869167 0.1510187 -0.08631384 -0.08415971 -0.15030885 0.13055417 0.11215991 -0.07423548 -0.036850825 0.018273657 0.014115692 -0.048973735 -0.05951325 0.06782484 0.1107205 -0.00936564 0.20422731 -0.12601091 0.055376388 -0.21694958 -0.049221598 0.08514475 -0.06360586 0.13618475 -0.054362748 -0.17055912 -0.14175469 -0.23883045 0.07385369 0.0030263534 -0.13429463 0.036655974 0.14412646 -0.07866527 0.0023004056 -0.1340066 -0.09434452 0.018197602 -0.1229867 0.07719244 -0.027600437 0.07650316 -0.047333878 0.009016097 0.009296307 -0.103513956 0.06795242 -0.027632859 0.011592054 0.11146108 0.05687723 -0.0914158 0.02011515 0.13692692 0.078423366 0.13626923 -0.034901172 -0.047544915 0.09749809 -0.08308291 0.13651344 0.07155672 0.08405725 -0.12171243 0.15403557 0.12613818 0.0877713 0.03541823 -0.020509668 0.029856386 -0.02630739 0.03591214 -0.08299669 0.09157962 -0.17811354 -0.10338612 0.03640577 -0.17850406 -0.14443262 -0.01386849 0.07225596 -0.053362705 0.02578615 0.042568095 0.055895936 -0.032736007 -0.06506142 0.031531934 0.042780954 0.056642573 0.16534097 0.014010358 0.08310221 -0.010777485 0.05472196 -0.012175655 -0.032557182 -0.15411855 -0.09315504 0.09696757 0.041271787 0.00755022 -0.1732869 -0.053882513 0.060141306 0.09157423 -0.0009321996 0.08033522 -0.08497332 0.07409547 0.11872697 -0.050930884 -0.102925465 0.091938965 0.10830973 -0.11745166 0.01669432 -0.039229214 -0.12464662 -0.053455465 0.059513398 -0.05480642 0.07958944 0.03224467 -0.012433098 0.017566504 0.20157339 -0.10420392 -0.07463749 -0.09937787 -0.14726478 0.02388681 -0.07028818 0.005884588 -0.043679662 0.121797726 0.061501052 -0.011551684 0.050028536 0.06434525 -0.038718488 -0.09706833 0.057990417 -0.04231576 -0.089692585 0.0965084 0.10433582 -0.03276496 0.07716543 -0.0029217799
revolution 0.12785886 0.21511894 0.040033188 -0.0030665142 -0.027419258 0.14162897 0.029258907 -0.028551014 -0.014895789 -0.0192195 0.0051094717 0.062957294 -0.16387866 0.1324903 -0.13915345 0.09577478 0.0718475 -0.047391206 -0.022179095 0.18585315 -0.08858057 0.10999717 -0.00024681282 -0.18916751 -0.14211322 0.21340089 -0.15650876 -0.035592273 -0.12003343 -0.07630031 0.05692477 0.14065683 0.089753635 -0.023244351 -0.07005221 0.064255826 0.096968226 -0.020918021 -0.1006318 -0.06302386 0.13967828 -0.16728204 0.14146906 -0.08725036 0.019638434 0.014539003 -0.08701829 0.05062859 -0.0329196 0.0072250515 0.010221374 0.167791 -0.097313344 -0.09210512 -0.17033195 0.14657538 0.12826139 -0.080192946 -0.03767342 0.019831534 0.015618534 -0.050771914 -0.062268704 0.07695826 0.12308665 -0.011715551 0.2234595 -0.14112547 0.061429996 -0.23560935 -0.059288807 0.091726415 -0.07303814 0.15337695 -0.05687747 -0.18565938 -0.15805228 -0.26117143 0.07904992 0.00037211578 -0.14647245 0.042673178 0.15828018 -0.08344317 0.0054879035 -0.15124096 -0.103878625 0.022034818 -0.13551447 0.08753199 -0.02788476 0.079407275 -0.053111605 0.009069148 0.012164747 -0.112088434 0.07167217 -0.029777294 0.011853971 0.122603886 0.06176668 -0.10187669 0.018476382 0.15072843 0.085761644 0.15467387 -0.039632168 -0.049526352 0.11135059 -0.091193624 0.1511178 0.075611554 0.09439068 -0.13715918 0.17246805 0.13722786 0.092790425 0.040019926 -0.025325147 0.029913759 -0.02813944 0.041764658 -0.09186457 0.10112123 -0.19301748 -0.1090433 0.041839987 -0.19633634 -0.16442806 -0.013483768 0.0838983 -0.06033048 0.02849498 0.050587926 0.06481255 -0.036756873 -0.072774045 0.03192299 0.04573452 0.0669505 0.17939585 0.012423263 0.09082821 -0.011201823 0.06009026 -0.013774605 -0.034446433 -0.16948274 -0.106819555 0.10297238 0.049613133 0.010078224 -0.1965773 -0.05591695 0.0718976 0.09664181 -0.0011148829 0.090347245 -0.094268516 0.08706562 0.13221812 -0.05980123 -0.1177909 0.097714044 0.1195905 -0.13183272 0.018716896 -0.045435414 -0.13606954 -0.062118758 0.06681302 -0.059871312 0.088546254 0.036328126 -0.01291891 0.014006523 0.22353847 -0.113791965 -0.08086773 -0.11350251 -0.1592502 0.02884029 -0.079344034 0.0029370792 -0.047077615 0.13123862 0.07118389 -0.01073907 0.053599205 0.07246078 -0.045664605 -0.10429295 0.06533398 -0.049570844 -0.09788816 0.10622079 0.116311386 -0.03430893 0.08615412 -0.0005188182
russian 0.10157448 0.16599113 0.032422315 -0.0035267165 -0.021879338 0.107247055 0.025348485 -0.018696731 -0.013531554 -0.014531393 0.004839525 0.048412226 -0.12363113 0.10433761 -0.1044569 0.07283176 0.052358016 -0.03648589 -0.019629486 0.14241661 -0.0652861 0.08424198 -0.0017886875 -0.14396639 -0.10944899 0.16244745 -0.11814478 -0.028502597 -0.08690916 -0.055045713 0.042683285 0.1073567 0.06898585 -0.016778233 -0.050852302 0.05083071 0.07197746 -0.014347725 -0.074426755 -0.04829275 0.10945416 -0.12403344 0.10410357 -0.0664151 0.016604215 0.014651829 -0.06845866 0.042809054 -0.029083373 0.004219792 0.010831408 0.1266703 -0.07166394 -0.07257315 -0.12680127 0.109543204 0.097996905 -0.06298288 -0.029179668 0.017424816 0.009634167 -0.041868128 -0.05065319 0.056371894 0.09257103 -0.011740713 0.17501739 -0.10867012 0.046886533 -0.18320519 -0.043514773 0.07130388 -0.055821333 0.11295024 -0.04567093 -0.14301525 -0.120841965 -0.19785473 0.062351316 0.0048236223 -0.112292044 0.0322245 0.121437736 -0.06565636 0.0011525709 -0.11168598 -0.07588552 0.014656426 -0.10400574 0.06227312 -0.022804288 0.06100937 -0.037520044 0.0064428663 0.009618801 -0.085458845 0.055917494 -0.023775775 0.010313141 0.09461979 0.048486874 -0.08074914 0.017425826 0.11384877 0.06213356 0.11550617 -0.029925838 -0.03951628 0.0833165 -0.07146584 0.11430507 0.06071564 0.07068528 -0.10504995 0.13145684 0.10510191 0.070202805 0.032130413 -0.02064221 0.026949845 -0.020394204 0.030496702 -0.06801688 0.07654669 -0.14970087 -0.08653896 0.030311318 -0.15279485 -0.12118398 -0.015367298 0.06058155 -0.047269724 0.01832178 0.03965264 0.049121115 -0.026580999 -0.058318138 0.02716463 0.036646325 0.046346206 0.13727877 0.011376806 0.069959715 -0.012773979 0.045610037 -0.011895279 -0.029539693 -0.126894 -0.0826583 0.08078664 0.032936975 0.006810646 -0.14792067 -0.04503856 0.049861412 0.07602862 -0.0047914884 0.069846705 -0.07057799 0.065248564 0.10159684 -0.046024755 -0.08914413 0.07463618 0.08784547 -0.09863911 0.016449705 -0.032700647 -0.10328103 -0.04689072 0.05437923 -0.04778035 0.067325085 0.026672585 -0.0122913495 0.012679023 0.16567673 -0.086601354 -0.059985116 -0.08732453 -0.1254901 0.020810453 -0.060944404 0.00548678 -0.035634372 0.0989079 0.052050516 -0.008577657 0.04133473 0.0518032 -0.03444589 -0.08335761 0.046578348 -0.037181392 -0.075288594 0.08025118 0.08758837 -0.027670778 0.06784996 -0.00211074
lebanon 0.12323705 0.20853098 0.041595407 -0.0006595489 -0.024232818 0.13908088 0.027402358 -0.02565726 -0.016488846 -0.014643381 0.0075664427 0.063447595 -0.15736467 0.12936631 -0.13168812 0.09244297 0.06763448 -0.04593505 -0.021583851 0.17862648 -0.08268466 0.10658274 4.7960748e-05 -0.18509048 -0.1400673 0.20524222 -0.14630646 -0.035212602 -0.114779726 -0.069679834 0.058758978 0.13854912 0.08396095 -0.02508103 -0.06811025 0.066515476 0.09345378 -0.020442782 -0.09722203 -0.061603334 0.1369877 -0.16176754 0.13693042 -0.08595498 0.02200767 0.01502804 -0.08925969 0.051225822 -0.035685007 0.00885278 0.009713772 0.16174804 -0.09000502 -0.08818479 -0.16339625 0.14241955 0.12403921 -0.07786401 -0.040681902 0.021004919 0.014870978 -0.048799504 -0.061596006 0.07234961 0.119103715 -0.010692295 0.21978945 -0.1354036 0.05574749 -0.22871868 -0.05346839 0.090102375 -0.06618864 0.14590286 -0.05750837 -0.1787984 -0.14967963 -0.2524783 0.074814275 0.00591202 -0.14381675 0.040435888 0.14869386 -0.0824465 0.003936938 -0.14637291 -0.10025745 0.023201963 -0.12914665 0.08394312 -0.029499767 0.08011542 -0.04975329 0.0082043605 0.012992159 -0.10595619 0.072887644 -0.030044029 0.011285493 0.115915276 0.05944463 -0.10045738 0.019672278 0.14471722 0.08032492 0.14919786 -0.038534023 -0.0480897 0.105862185 -0.08940483 0.14557214 0.07799976 0.09202456 -0.1323166 0.16572936 0.13367072 0.09214847 0.03894113 -0.023716023 0.033586755 -0.024748985 0.0352791 -0.08736211 0.09611996 -0.19130178 -0.11109003 0.038481567 -0.18961053 -0.15773576 -0.018231325 0.07813893 -0.058455758 0.025370598 0.048666134 0.059781756 -0.038740426 -0.06889181 0.03048502 0.045043435 0.0621844 0.17679393 0.014879676 0.089629084 -0.015562691 0.059805736 -0.015263828 -0.03838698 -0.1612584 -0.10049721 0.10228623 0.045158837 0.008830075 -0.18573113 -0.057891585 0.0682463 0.093945906 -0.0044794027 0.08408054 -0.090013154 0.079470955 0.12496321 -0.0540766 -0.112337776 0.096768565 0.113142595 -0.12866049 0.022771707 -0.043233395 -0.12949423 -0.056089465 0.066692814 -0.059741244 0.0846289 0.03602318 -0.013355451 0.015312772 0.21192518 -0.10715441 -0.08002742 -0.10826572 -0.1590834 0.023503203 -0.077948466 0.0056161573 -0.04617857 0.12727848 0.06945834 -0.012562954 0.052439276 0.06664534 -0.044575363 -0.10298637 0.061655574 -0.043991804 -0.097352885 0.10050699 0.11054392 -0.03794672 0.08206185 0.0006758853
uncle 0.13481374 0.21965548 0.042765267 -0.004573793 -0.025873858 0.14850374 0.029348645 -0.030116394 -0.014151433 -0.017214958 0.007323709 0.0680159 -0.16410376 0.13946383 -0.14249726 0.097176924 0.07437913 -0.047270615 -0.027769292 0.19285189 -0.0903004 0.113455184 0.0016484099 -0.1954007 -0.14577179 0.21839611 -0.15761426 -0.038073946 -0.120979294 -0.076148115 0.061551318 0.14281617 0.09130374 -0.026148843 -0.07346177 0.06728589 0.10006235 -0.022196531 -0.10023953 -0.06376091 0.14710137 -0.16801575 0.13972783 -0.08932157 0.023927912 0.01659946 -0.09292293 0.052697238 -0.033240017 0.010296506 0.011717856 0.16937724 -0.094487965 -0.09222708 -0.17139186 0.15197346 0.12917568 -0.081727825 -0.043646976 0.021258868 0.015701432 -0.055921294 -0.06432814 0.07692856 0.12573737 -0.01291335 0.23298427 -0.14440982 0.05884741 -0.23939174 -0.059739683 0.09438536 -0.07321455 0.15333526 -0.060865127 -0.18955511 -0.16007023 -0.2659004 0.07999578 0.0055476497 -0.14959285 0.042857524 0.15928395 -0.085762605 0.0034880445 -0.15117776 -0.10490396 0.02175264 -0.1380139 0.08612031 -0.03260941 0.08336866 -0.05056924 0.012124443 0.011377211 -0.11494638 0.07761599 -0.030348513 0.016469197 0.12542938 0.06255339 -0.10397975 0.023647739 0.15215054 0.08633337 0.15421732 -0.03863077 -0.050495066 0.11241392 -0.09111832 0.15434445 0.08043339 0.09687148 -0.14030363 0.1717285 0.14030518 0.09703024 0.03821525 -0.02293403 0.034029674 -0.028149372 0.038416628 -0.09061895 0.1018087 -0.19791143 -0.112755835 0.036517758 -0.20242178 -0.16596168 -0.018234339 0.08004663 -0.06070754 0.027032727 0.051545266 0.061929163 -0.036431044 -0.07725249 0.032626312 0.044142358 0.06672762 0.18526872 0.015965622 0.09636987 -0.01527052 0.06091196 -0.014265115 -0.03661302 -0.17256117 -0.107640825 0.107409656 0.05022529 0.007714204 -0.2001426 -0.05911389 0.06934298 0.09958425 -0.0015393909 0.0882094 -0.098688416 0.086941 0.1322275 -0.0591559 -0.12005762 0.102427535 0.117440246 -0.13313958 0.022691045 -0.044563346 -0.13926335 -0.058965094 0.06638864 -0.06298413 0.08777231 0.035369903 -0.01724001 0.01847148 0.22347483 -0.11237047 -0.08224394 -0.11454509 -0.166183 0.028474435 -0.07958466 0.0055065867 -0.051518068 0.13527147 0.07018476 -0.010872306 0.056859124 0.07191579 -0.04481977 -0.111470446 0.062404938 -0.04942991 -0.101126805 0.10579041 0.11628556 -0.035819497 0.08836671 -0.0032627117
forces 0.108850084 0.1812634 0.036920484 -9.126995e-05 -0.020792553 0.1217351 0.024500288 -0.023737906 -0.014238167 -0.014770724 0.0056438018 0.055593956 -0.1340612 0.1146488 -0.11279137 0.079653576 0.058259413 -0.038611967 -0.021845961 0.15401179 -0.07312639 0.09171565 0.0020320124 -0.15875772 -0.116608836 0.17883758 -0.12851742 -0.032924205 -0.09710524 -0.06338783 0.05006439 0.12067263 0.07348447 -0.01981331 -0.05845844 0.05736801 0.0794076 -0.018020885 -0.08232627 -0.055208948 0.11829867 -0.14037819 0.11283265 -0.07519399 0.019250438 0.015994638 -0.07790842 0.04350631 -0.03137632 0.006849244 0.00753109 0.13998453 -0.0814117 -0.07909594 -0.14096035 0.12020604 0.10632434 -0.06495808 -0.03418578 0.018010527 0.013745763 -0.04328352 -0.053165536 0.061809883 0.101631664 -0.011342202 0.19120844 -0.11661435 0.05064743 -0.19815452 -0.04945215 0.0756393 -0.059764333 0.12550642 -0.04697092 -0.15556881 -0.13069293 -0.21953738 0.068205036 0.0056689237 -0.12390828 0.03220897 0.12932636 -0.07462204 0.004243354 -0.124569505 -0.08638764 0.016269844 -0.111949794 0.06990056 -0.025323939 0.06940871 -0.04441736 0.007340107 0.009441742 -0.09470023 0.061367705 -0.027350707 0.012988862 0.099196374 0.05053975 -0.086259335 0.019258834 0.12529333 0.06810458 0.12633075 -0.03426275 -0.040806606 0.09361269 -0.07539379 0.12742607 0.066917256 0.076095685 -0.11024073 0.1396435 0.117895424 0.079688564 0.03233853 -0.019308347 0.027353408 -0.025249826 0.034089677 -0.07646016 0.08219581 -0.16377072 -0.09278312 0.03409837 -0.16577028 -0.13347323 -0.01552533 0.06557157 -0.05121698 0.02092169 0.039658204 0.050060477 -0.03268549 -0.06418473 0.02903414 0.040489133 0.051276065 0.15230519 0.013373293 0.0778443 -0.010645207 0.04975673 -0.010806956 -0.032285415 -0.14302449 -0.08546055 0.089385584 0.037269253 0.0068415115 -0.15927608 -0.04627227 0.058416076 0.08160503 -0.004461312 0.073693775 -0.07990546 0.070314035 0.111418016 -0.048644178 -0.094097674 0.080292724 0.09920025 -0.10898621 0.015923109 -0.038766943 -0.11349058 -0.05207258 0.055499967 -0.04881721 0.07279641 0.030030675 -0.012646575 0.016219243 0.18563946 -0.094080634 -0.06948203 -0.091769956 -0.13720323 0.020028375 -0.063675076 0.0035983643 -0.041096535 0.10986206 0.060468372 -0.0073014963 0.049330767 0.05909016 -0.036376655 -0.09125228 0.054574843 -0.041223537 -0.083632655 0.08528274 0.095974974 -0.030413512 0.07304431 3.042819e-06
sheikh 0.1288046 0.20556208 0.040172588 -0.0031097515 -0.024952203 0.13953775 0.02767381 -0.02455968 -0.01828113 -0.017289374 0.009429485 0.059539963 -0.15321712 0.13055821 -0.13408148 0.08908221 0.068088666 -0.047453266 -0.02565187 0.18294911 -0.082443155 0.10384226 0.00068767474 -0.18219994 -0.13563672 0.2021911 -0.14836216 -0.034055036 -0.11550319 -0.070217654 0.05698744 0.13535585 0.08368998 -0.026862914 -0.070341595 0.06591355 0.09289836 -0.023061216 -0.09896844 -0.06475596 0.13856438 -0.15960011 0.13661946 -0.08766848 0.019825887 0.017650908 -0.08694756 0.050273906 -0.032462202 0.0057434747 0.010972697 0.15883562 -0.09418881 -0.08682002 -0.15958813 0.14001012 0.122485265 -0.07785823 -0.03747902 0.019308653 0.011863995 -0.051771384 -0.061639342 0.0716385 0.114693336 -0.013293101 0.21582998 -0.13510783 0.05718064 -0.22687982 -0.053433158 0.09071301 -0.06706696 0.14374177 -0.0580817 -0.18233398 -0.15216267 -0.25373998 0.076137 0.004411401 -0.14115073 0.041652627 0.15023594 -0.08438147 0.0046367343 -0.14442016 -0.09850205 0.019195573 -0.130062 0.079301186 -0.029423857 0.07687993 -0.04948777 0.009341548 0.009578311 -0.10532156 0.07026985 -0.032603808 0.012748987 0.11570891 0.058724534 -0.10211419 0.022245763 0.1419275 0.0826839 0.147419 -0.03598922 -0.05102189 0.107406825 -0.08481338 0.14487158 0.07721998 0.093116604 -0.13253917 0.16425174 0.13436987 0.089102775 0.03710506 -0.023640258 0.029695293 -0.02700753 0.037237488 -0.0884309 0.09416528 -0.18842542 -0.11002494 0.038852844 -0.19401549 -0.15787849 -0.016241841 0.07714153 -0.05451837 0.027458034 0.04931703 0.06097663 -0.034955766 -0.07217859 0.030139389 0.042246036 0.059640095 0.17640755 0.014151421 0.09153248 -0.013687534 0.058373455 -0.016396202 -0.03532799 -0.16350384 -0.10184468 0.1024199 0.046607815 0.0069818725 -0.18791802 -0.05296409 0.06847741 0.09506962 -0.0015930306 0.08645638 -0.09263973 0.08023909 0.12877548 -0.053424075 -0.11168007 0.093808256 0.113896996 -0.12797417 0.01794704 -0.04016853 -0.12693164 -0.056636725 0.066740304 -0.05620729 0.08201265 0.033542946 -0.014545219 0.016432185 0.21291026 -0.108217165 -0.07590943 -0.10679691 -0.15594795 0.025339657 -0.076866955 0.0044168085 -0.044714093 0.124994844 0.06982579 -0.010064855 0.054624584 0.06901536 -0.043299645 -0.10206617 0.061339457 -0.0460057 -0.099121474 0.10359836 0.10679099 -0.038958043 0.08081772 -0.0030817837
government 0.110795796 0.18623966 0.037048027 -0.0007269449 -0.023052549 0.120891355 0.024498962 -0.025565933 -0.011845086 -0.017034253 0.00928992 0.055096727 -0.13719231 0.11379675 -0.11703279 0.07745492 0.06148637 -0.041977886 -0.02299389 0.16139501 -0.074213825 0.09520409 -0.0020482198 -0.16397515 -0.12505986 0.1795343 -0.13003483 -0.030647676 -0.10274781 -0.060070343 0.05333234 0.12401779 0.078084275 -0.02394911 -0.057225436 0.058993615 0.08479466 -0.0181724 -0.08822617 -0.056060527 0.12057547 -0.14405067 0.11809421 -0.07476291 0.019074598 0.01317279 -0.079514325 0.047333818 -0.031155339 0.0042963563 0.008736829 0.14326715 -0.082802065 -0.07720412 -0.14658637 0.1270283 0.10739637 -0.06783651 -0.03526386 0.019436464 0.011421529 -0.04441357 -0.057878666 0.06362381 0.101550914 -0.00969832 0.19419624 -0.11790154 0.053352956 -0.20380718 -0.04689884 0.07793345 -0.06187935 0.13231929 -0.049652897 -0.16251202 -0.13193299 -0.2238153 0.068097256 0.0054162065 -0.12474956 0.03657823 0.13204694 -0.07690047 0.0049393764 -0.12674712 -0.085229784 0.020662922 -0.114018805 0.07421242 -0.025189182 0.071278006 -0.04362991 0.011912326 0.012529844 -0.09604831 0.06492135 -0.027689297 0.0133415805 0.10648107 0.052072514 -0.08499232 0.016915724 0.12671298 0.07318517 0.13036163 -0.03186869 -0.04237859 0.09425266 -0.07781407 0.12771513 0.06789896 0.0802895 -0.11450012 0.14726366 0.11825655 0.07795636 0.031699095 -0.02244273 0.029131534 -0.022513708 0.030936118 -0.07673731 0.08413671 -0.16841406 -0.095936 0.033823483 -0.17044972 -0.13707234 -0.016635276 0.06972216 -0.047846813 0.021070324 0.041826025 0.050761014 -0.033230644 -0.061033543 0.030055882 0.04114254 0.054584064 0.15239672 0.011471936 0.08156082 -0.013889171 0.05271239 -0.012384883 -0.031680807 -0.14195634 -0.09132669 0.09084796 0.04077143 0.009824669 -0.16324191 -0.051594354 0.057899717 0.0834358 -0.0038811057 0.07327376 -0.08110654 0.07175438 0.11199245 -0.049739495 -0.09848387 0.08656179 0.10095337 -0.11075 0.020291898 -0.038769484 -0.117698565 -0.04908196 0.056524545 -0.049709644 0.07520349 0.031336334 -0.014188771 0.01389539 0.18846472 -0.09416173 -0.06681705 -0.095390804 -0.14168905 0.02195839 -0.06761732 0.0031965778 -0.04418513 0.115609415 0.060751963 -0.007647778 0.048979957 0.062154174 -0.037813716 -0.09052048 0.05226852 -0.04109192 -0.08757743 0.08940347 0.09466855 -0.031397983 0.07496909 -0.0036340011
military 0.117660865 0.19623719 0.03810726 -0.0022109782 -0.025749227 0.13161254 0.02870502 -0.024546644 -0.013482253 -0.017542351 0.009200991 0.058769323 -0.1472222 0.122912824 -0.12365973 0.08337601 0.0646038 -0.045812238 -0.023265947 0.16571061 -0.0775423 0.10125308 0.0021701867 -0.16997887 -0.13009857 0.19251898 -0.13865106 -0.034946077 -0.10344422 -0.06625534 0.05156644 0.127111 0.07801197 -0.02381418 -0.062056135 0.059341375 0.08477985 -0.019676682 -0.093101494 -0.058616757 0.1283237 -0.14674921 0.12430246 -0.08235318 0.017750585 0.013486007 -0.081893586 0.050556246 -0.03180765 0.004610299 0.009900925 0.15074764 -0.08711751 -0.08052915 -0.14979126 0.13048528 0.11407294 -0.07221859 -0.03683366 0.017990457 0.011008602 -0.04888608 -0.057000596 0.065343164 0.10998655 -0.010316294 0.20305912 -0.1242727 0.05095005 -0.21158038 -0.0506789 0.0853342 -0.060950402 0.13759477 -0.054695155 -0.16968174 -0.14121728 -0.23735465 0.070219286 0.005183163 -0.13561891 0.038567245 0.14098457 -0.07959498 0.0039626523 -0.13415802 -0.09267263 0.018707812 -0.12275761 0.07492875 -0.026262173 0.072180375 -0.049135372 0.0087316735 0.012341177 -0.09856401 0.06860121 -0.029405655 0.012766252 0.10958774 0.055273287 -0.09004664 0.017641963 0.13362959 0.07623302 0.13977553 -0.036848858 -0.044405494 0.09704962 -0.08237303 0.13899167 0.07207691 0.085666865 -0.12294421 0.15102242 0.12266251 0.08542003 0.03314085 -0.022578657 0.03155709 -0.026874926 0.03356151 -0.08199905 0.08854384 -0.1771298 -0.104497656 0.031659123 -0.18092403 -0.14360082 -0.017158823 0.074864365 -0.054867517 0.023278235 0.044647295 0.054319933 -0.03627585 -0.06453425 0.029584972 0.039452463 0.055491682 0.16232279 0.011184387 0.08557166 -0.011273143 0.05378166 -0.016437754 -0.036012772 -0.14967638 -0.095674165 0.09234554 0.039034363 0.008669495 -0.17486863 -0.050776426 0.059589792 0.08895641 -0.0015019927 0.082289346 -0.08663941 0.07578614 0.11627958 -0.051185492 -0.105876245 0.0912438 0.10776195 -0.11906894 0.018536467 -0.04052048 -0.12403614 -0.052229133 0.05938436 -0.05427161 0.07579091 0.029975913 -0.013236347 0.014711272 0.19827013 -0.09965261 -0.07490662 -0.1032468 -0.148842 0.025417073 -0.07213154 0.0053449413 -0.044723075 0.11846811 0.06315786 -0.0121417595 0.049532913 0.06443582 -0.041636374 -0.0971833 0.05555101 -0.044882134 -0.09074411 0.09325357 0.102688484 -0.03597947 0.07674617 0.00045639797
uae 0.110680625 0.18431558 0.03773683 -0.000496825 -0.022553595 0.12268579 0.027349638 -0.023738394 -0.015713463 -0.01264393 0.004869047 0.056945376 -0.13845271 0.11779895 -0.116309546 0.07857024 0.06072433 -0.039600037 -0.01897817 0.1578158 -0.07627725 0.091488756 -0.002347337 -0.15968329 -0.12327997 0.17881075 -0.12971987 -0.03019376 -0.099003874 -0.060467906 0.050377574 0.11924703 0.07647165 -0.020404674 -0.060695723 0.057425976 0.0815518 -0.017223926 -0.08804093 -0.05237761 0.12154342 -0.14012513 0.11753303 -0.07888906 0.01784078 0.015794987 -0.07807433 0.042701364 -0.028726362 0.004434976 0.0073370175 0.13929285 -0.07884099 -0.07866314 -0.14105672 0.12671308 0.10690285 -0.07021334 -0.032141708 0.019841928 0.014823202 -0.042545166 -0.052595362 0.06578765 0.10440401 -0.010797551 0.19152808 -0.11906704 0.05267613 -0.2013192 -0.04777453 0.079522945 -0.061853513 0.12885684 -0.051926017 -0.15905625 -0.1347139 -0.22450608 0.06891567 0.002262559 -0.12588839 0.037370067 0.13524121 -0.07130457 0.006250043 -0.1274429 -0.087478146 0.02102748 -0.11680126 0.070182145 -0.022676868 0.06809139 -0.04259042 0.00828314 0.010309192 -0.093961924 0.062258296 -0.028449673 0.014038176 0.10505789 0.05080202 -0.08732026 0.020113602 0.12563717 0.07201007 0.12867373 -0.032260843 -0.043330073 0.091871835 -0.075186916 0.12815045 0.06802867 0.08073923 -0.114869975 0.143706 0.117211625 0.08003642 0.03239159 -0.018867468 0.02909293 -0.024959775 0.030748302 -0.07685203 0.08110977 -0.16627574 -0.09540646 0.033841815 -0.17002177 -0.13569488 -0.012224073 0.06824878 -0.049959134 0.02388671 0.04361285 0.054323968 -0.032357007 -0.065436386 0.030723285 0.039796397 0.052331273 0.15624811 0.010049086 0.07726468 -0.011219319 0.050710756 -0.01549324 -0.03341197 -0.14615157 -0.08665925 0.090742916 0.03695511 0.008120202 -0.16556165 -0.047340598 0.060327172 0.085222855 -0.0012325284 0.07459567 -0.08027601 0.07079701 0.11230369 -0.04887533 -0.095782675 0.08342509 0.09984088 -0.11011523 0.019523004 -0.03610561 -0.11432003 -0.04860772 0.059717976 -0.052338734 0.07329553 0.030951649 -0.01125034 0.012168115 0.18941349 -0.097326465 -0.06933828 -0.095808424 -0.13969348 0.024894916 -0.06747334 0.0037056406 -0.042144362 0.110166095 0.0574781 -0.0105088195 0.04613706 0.05680533 -0.037417717 -0.088717 0.05351996 -0.040465035 -0.083405115 0.089080796 0.09505409 -0.032789715 0.074627995 -0.00022625203
one 0.12067921 0.2020243 0.036695506 -0.0018444846 -0.027609628 0.13157317 0.028252466 -0.027855422 -0.012414764 -0.0161826 0.009817567 0.059519015 -0.14891928 0.12857342 -0.1282407 0.08782465 0.065891504 -0.044922836 -0.02510095 0.17273767 -0.08022211 0.10400633 0.00032934913 -0.17484543 -0.13416177 0.19951072 -0.14626855 -0.03415157 -0.110764705 -0.066656135 0.05584077 0.13502374 0.080874935 -0.02493623 -0.06513237 0.06257867 0.08797513 -0.017720144 -0.093727775 -0.06060847 0.13526432 -0.15398043 0.1323838 -0.082068175 0.019113513 0.017250046 -0.08524643 0.050701946 -0.03315379 0.007599448 0.008096841 0.15428412 -0.08643954 -0.08705033 -0.15517598 0.1385021 0.11945422 -0.0732775 -0.03718973 0.02134401 0.014959386 -0.049188837 -0.06251416 0.06817771 0.11535425 -0.011086066 0.21310021 -0.1322116 0.055108536 -0.22003497 -0.05473535 0.08809863 -0.068096824 0.14025123 -0.056805052 -0.17579004 -0.14307496 -0.24642353 0.074205324 0.0027696814 -0.13893916 0.036263723 0.14409122 -0.08058147 0.0039535263 -0.14093055 -0.09765468 0.02135998 -0.12861091 0.078699626 -0.02697842 0.075560816 -0.04656693 0.009663429 0.00989387 -0.10291019 0.07096616 -0.030164264 0.013492318 0.11512405 0.05915492 -0.09604783 0.018338244 0.14099714 0.07872357 0.14053912 -0.036795646 -0.045328613 0.10353971 -0.08461808 0.14130893 0.07444104 0.08823626 -0.12411389 0.15963158 0.13155979 0.0903499 0.03634561 -0.022765279 0.028204802 -0.026569366 0.0356329 -0.08588904 0.09183068 -0.18163408 -0.10675859 0.03707799 -0.18386796 -0.14878514 -0.01437668 0.0753973 -0.053189866 0.025708491 0.046491623 0.059862386 -0.037797637 -0.07007628 0.03211253 0.04292494 0.06002915 0.16998863 0.014658129 0.08767324 -0.013212081 0.0586571 -0.01339029 -0.032193206 -0.15791565 -0.09737861 0.100712806 0.04080792 0.008366956 -0.1807295 -0.051579837 0.06401566 0.09386511 -0.0042488147 0.08386561 -0.08917379 0.07725936 0.119991235 -0.0551656 -0.10942869 0.09311263 0.1071898 -0.12317047 0.018765492 -0.043114692 -0.12829578 -0.053062525 0.06550191 -0.0548577 0.078607656 0.034887172 -0.011991297 0.016804554 0.205295 -0.10619011 -0.07487318 -0.106707774 -0.15363427 0.025777444 -0.07168265 0.0015323056 -0.048031293 0.12253334 0.066965856 -0.011969463 0.052455276 0.06788967 -0.040934738 -0.099194005 0.06139009 -0.046681132 -0.09254406 0.0988106 0.10428658 -0.03404428 0.08048084 -0.004252243
religion 0.12459359 0.20471846 0.037899718 -0.004256139 -0.023439694 0.13536708 0.028818196 -0.026146706 -0.013295183 -0.017630784 0.0060335915 0.05928077 -0.15166666 0.1286635 -0.1312691 0.08928181 0.06736047 -0.04461305 -0.022188256 0.17565933 -0.08394786 0.10089324 8.982874e-05 -0.17724243 -0.13263127 0.2009891 -0.14692563 -0.03399404 -0.10842483 -0.068147 0.056745466 0.13637903 0.08304609 -0.023412863 -0.06560882 0.06293007 0.09038915 -0.019474715 -0.09562546 -0.06248701 0.13531633 -0.15748124 0.13198744 -0.08281046 0.018582078 0.01721877 -0.083906054 0.05114242 -0.034309853 0.006586558 0.013112094 0.15414432 -0.09041661 -0.08860905 -0.15845197 0.13771756 0.119101405 -0.07593653 -0.03605644 0.019459153 0.014298615 -0.049938623 -0.058847874 0.07023763 0.11249596 -0.009330628 0.21153018 -0.12894371 0.054181892 -0.22455016 -0.055127386 0.08915708 -0.06712877 0.14377545 -0.055042394 -0.17745276 -0.14523424 -0.24439164 0.07278792 0.0065780566 -0.13754785 0.036827207 0.14888215 -0.07960316 0.005892687 -0.14136581 -0.09681717 0.018733872 -0.12576683 0.07916407 -0.02653604 0.07519897 -0.047326624 0.008766902 0.008810646 -0.104113996 0.06834979 -0.030057803 0.01375295 0.112150684 0.058442652 -0.09463906 0.021422142 0.14193425 0.08057525 0.14592172 -0.03394153 -0.045906134 0.106288075 -0.08774815 0.14153141 0.07531846 0.087124236 -0.1265436 0.15913416 0.13079743 0.090534054 0.03691946 -0.021896802 0.030565076 -0.024275506 0.037848525 -0.084059075 0.093443654 -0.1815545 -0.109062396 0.03718802 -0.18937276 -0.1502348 -0.014354157 0.07457272 -0.0569767 0.027398199 0.04605067 0.06028273 -0.03804064 -0.06901188 0.029141039 0.04241107 0.057564143 0.17160808 0.01610764 0.08545121 -0.014787989 0.05855027 -0.015031386 -0.0361034 -0.16001038 -0.09875542 0.09968716 0.04143903 0.011024479 -0.18442702 -0.052790765 0.06349955 0.093300745 -0.002774394 0.081216276 -0.08827782 0.07863226 0.12438888 -0.053553212 -0.109248 0.095343255 0.11213131 -0.12119319 0.018612584 -0.042793464 -0.12686485 -0.056874126 0.065244414 -0.05334886 0.08341442 0.033384617 -0.015778143 0.013203565 0.2053539 -0.106950715 -0.07634063 -0.10652626 -0.14987354 0.026645927 -0.07296624 0.0031417285 -0.043749683 0.12585098 0.0682536 -0.00879372 0.05116791 0.06565973 -0.041352328 -0.10025063 0.05843686 -0.04501952 -0.09239607 0.09648121 0.10834022 -0.037795223 0.07841283 -0.0014881003
country 0.117800534 0.19472978 0.04014816 -0.0044215694 -0.026878137 0.12725258 0.027097575 -0.022595547 -0.014084863 -0.015765345 0.0057307607 0.058028493 -0.14679152 0.12458642 -0.12338432 0.0868367 0.06698154 -0.042091366 -0.023305032 0.1711185 -0.0801891 0.10187829 0.000980848 -0.17242365 -0.12758227 0.19104815 -0.1399547 -0.034455463 -0.10782727 -0.06561871 0.054903142 0.12716113 0.078632735 -0.023748212 -0.060513917 0.059831366 0.0890179 -0.021499671 -0.09035813 -0.05652583 0.12988555 -0.15196206 0.12608825 -0.0775942 0.019011235 0.01316048 -0.080748454 0.047676295 -0.030971142 0.008347408 0.009729058 0.15263541 -0.08557951 -0.081768 -0.15394658 0.1306838 0.111806065 -0.07261737 -0.038043786 0.02053803 0.0128688095 -0.045094147 -0.06056033 0.06507982 0.1110067 -0.011468793 0.20703693 -0.12807517 0.054191925 -0.21591657 -0.051174156 0.08178328 -0.06106903 0.13803904 -0.055661023 -0.17055707 -0.14182056 -0.2352579 0.07378854 0.0035914297 -0.13574012 0.03675252 0.14265978 -0.07844085 0.0017211735 -0.13380662 -0.09227259 0.020922512 -0.1226148 0.075969644 -0.028815955 0.072335586 -0.0464985 0.010151774 0.010483042 -0.10342483 0.06903353 -0.029199898 0.014792844 0.10942459 0.05394387 -0.091287225 0.020244615 0.13556917 0.07635461 0.13587934 -0.034902856 -0.044226084 0.09957733 -0.080618635 0.1374851 0.07313904 0.08368469 -0.12229725 0.1553728 0.12293397 0.0866987 0.037577905 -0.022933532 0.027765203 -0.027880033 0.033120137 -0.084409356 0.08966392 -0.17921354 -0.10021294 0.03457039 -0.18130913 -0.14553471 -0.01423022 0.07491946 -0.052300524 0.023031572 0.042552695 0.0555779 -0.032701377 -0.06537431 0.029140238 0.040598467 0.05760015 0.16404854 0.014819741 0.08145832 -0.013252865 0.056433197 -0.012297977 -0.031182306 -0.15281788 -0.09555695 0.09407991 0.04182136 0.0113802925 -0.17465663 -0.050184846 0.06372624 0.08717135 -0.0051054177 0.079408936 -0.085125335 0.07492554 0.11980291 -0.050128087 -0.106729455 0.09165245 0.10630767 -0.11651938 0.0191818 -0.041312084 -0.11992856 -0.05605023 0.060163405 -0.055096567 0.079013035 0.029922657 -0.012653652 0.015540767 0.19694231 -0.09983357 -0.071767725 -0.099601075 -0.14583468 0.021599546 -0.06981062 0.0018595201 -0.044971745 0.121215194 0.06148485 -0.009882415 0.0517051 0.06420766 -0.038730968 -0.09645033 0.05925889 -0.04239014 -0.09230451 0.093861245 0.103541344 -0.03661046 0.07863319 -0.003304516
system 0.11552465 0.18606268 0.03656786 -0.0011830494 -0.021926738 0.12615123 0.02549105 -0.022845566 -0.016115652 -0.01458467 0.007159822 0.054501012 -0.14293523 0.12052936 -0.1210382 0.08254281 0.0600439 -0.041682824 -0.020489769 0.16531129 -0.07443478 0.09759705 -0.0025234155 -0.1649939 -0.123936094 0.18696608 -0.13286795 -0.030788047 -0.10161635 -0.06280407 0.053027038 0.123944096 0.0780533 -0.019916533 -0.059348747 0.059753995 0.08406718 -0.018260853 -0.09047247 -0.05487357 0.12560119 -0.14516117 0.1226078 -0.078206055 0.01931509 0.013678203 -0.07958344 0.04760068 -0.031225411 0.0042534457 0.00831533 0.14593811 -0.085665435 -0.0823278 -0.14486301 0.13001707 0.1088808 -0.069115356 -0.034474805 0.016405974 0.0107360715 -0.04815498 -0.05752263 0.062265832 0.1051172 -0.009842154 0.19734295 -0.1246471 0.052505698 -0.2074874 -0.04974548 0.083884485 -0.06330113 0.13085061 -0.049692027 -0.1641789 -0.13553941 -0.2269105 0.072068654 0.005736089 -0.12748495 0.038141046 0.13658811 -0.07812105 0.005729874 -0.12915216 -0.09144791 0.021567969 -0.12148132 0.07440377 -0.027556036 0.07370396 -0.044239324 0.008639381 0.012406575 -0.09887179 0.06482313 -0.028933696 0.010335594 0.10825457 0.054437343 -0.09181532 0.019438334 0.12964211 0.0757455 0.13475817 -0.031179493 -0.04453124 0.09391261 -0.07776686 0.13306884 0.06620277 0.083807826 -0.12035105 0.14820744 0.12192668 0.08201631 0.033565152 -0.019956417 0.029610442 -0.026231483 0.034163237 -0.07919434 0.08393252 -0.17245692 -0.10155996 0.033187952 -0.17313899 -0.1425126 -0.013599672 0.06777604 -0.05348225 0.02244134 0.043856323 0.055601522 -0.031116331 -0.06655436 0.03208096 0.037791632 0.05732648 0.15834245 0.010898479 0.07856857 -0.01340333 0.055029027 -0.011385523 -0.033245083 -0.14876813 -0.08965658 0.09360016 0.042158067 0.0073342016 -0.17023869 -0.048457276 0.062106807 0.08853799 -0.0011420873 0.08017636 -0.085933395 0.07263725 0.11630239 -0.050998304 -0.09863549 0.08656559 0.10420641 -0.11544938 0.021256484 -0.038958833 -0.116911195 -0.051989064 0.057709742 -0.053443704 0.0751048 0.032648705 -0.015856674 0.015659068 0.19017617 -0.09714038 -0.07048827 -0.09892055 -0.14135972 0.020966964 -0.06903466 0.005288708 -0.04347897 0.117772736 0.061525367 -0.011734609 0.04860063 0.060153358 -0.038090974 -0.09579454 0.05315082 -0.04373666 -0.08976191 0.09033236 0.098594636 -0.033408877 0.075454645 -0.002267078
libya 0.10940526 0.1761347 0.035450004 -0.0044282055 -0.021243231 0.119576275 0.027504316 -0.024409136 -0.014101027 -0.014825858 0.004195891 0.052263256 -0.13274081 0.11116836 -0.11562013 0.07631709 0.05808236 -0.03897255 -0.023126371 0.15420088 -0.07161772 0.091650166 0.0015421666 -0.15755822 -0.1196015 0.1741447 -0.12922482 -0.030293325 -0.096876875 -0.061350998 0.049330767 0.119410574 0.07360726 -0.022624724 -0.05621946 0.056954607 0.07742329 -0.017528212 -0.08363118 -0.053425167 0.11854119 -0.13516545 0.11669694 -0.0758034 0.016958356 0.0136944 -0.07424491 0.043130863 -0.02902995 0.006551147 0.009434343 0.13969444 -0.078721695 -0.07880852 -0.13996623 0.11920709 0.10695937 -0.0643605 -0.035106417 0.0150024565 0.012739278 -0.046441395 -0.055205286 0.06289757 0.103599384 -0.008744926 0.18989056 -0.11663256 0.04719251 -0.19537546 -0.04465674 0.07965949 -0.059321836 0.12617588 -0.048139483 -0.15617625 -0.12861711 -0.2181084 0.06517563 0.004567632 -0.12169888 0.03414924 0.13233359 -0.07345528 0.0045218403 -0.12681563 -0.085290365 0.017424038 -0.1162166 0.069289275 -0.024834232 0.070232645 -0.040574554 0.010592522 0.011399445 -0.09216601 0.05981383 -0.024027165 0.011125972 0.09980005 0.04858899 -0.08318546 0.02017452 0.1255415 0.068578124 0.12575924 -0.029680602 -0.043716658 0.09339849 -0.07670153 0.12664236 0.06250374 0.077090435 -0.11024139 0.14276874 0.117410876 0.08031146 0.03422466 -0.019615058 0.024829648 -0.025394201 0.0318855 -0.0763544 0.08130526 -0.16135642 -0.09672444 0.03306675 -0.16386352 -0.13284247 -0.01330433 0.06563714 -0.048946347 0.02447569 0.03994719 0.050462864 -0.031544346 -0.059423283 0.026552677 0.040517967 0.052874237 0.15126678 0.01262029 0.07475747 -0.009217658 0.051732928 -0.013816934 -0.029226324 -0.14160505 -0.08926516 0.08485756 0.040463097 0.0062469766 -0.16227388 -0.050540265 0.05800251 0.08080724 -0.00036202586 0.073279925 -0.07879369 0.06888285 0.10840473 -0.04928601 -0.09674909 0.08002501 0.100542605 -0.110808805 0.019952033 -0.038284622 -0.11431033 -0.0493086 0.05667902 -0.04768472 0.07161991 0.02975325 -0.010988751 0.0128460955 0.18147583 -0.091971405 -0.06610225 -0.09451883 -0.135807 0.023182908 -0.06764812 0.0021700715 -0.04009558 0.11005109 0.057218667 -0.0080609545 0.048846643 0.06002491 -0.036433864 -0.091157265 0.052348834 -0.038754374 -0.08518633 0.08787655 0.093576826 -0.028913643 0.07096084 -0.00018333978
regime 0.10071559 0.16883714 0.031361785 -0.0033426443 -0.023704354 0.109673865 0.022746496 -0.019399427 -0.011322285 -0.012066227 0.003408763 0.052654184 -0.12727948 0.10637183 -0.1093926 0.07197398 0.05659188 -0.04023041 -0.018068235 0.14326562 -0.065524146 0.08429007 -0.001746701 -0.14974298 -0.1093907 0.16488844 -0.11909691 -0.030834528 -0.09198788 -0.057563886 0.04363412 0.10946784 0.06735818 -0.021134729 -0.052632514 0.053613186 0.07355184 -0.014674087 -0.07899915 -0.049930375 0.11083012 -0.1282115 0.10818792 -0.069538385 0.018082561 0.01570559 -0.07244058 0.04004366 -0.027307848 0.007617433 0.008242107 0.13182585 -0.07485748 -0.0708303 -0.13000266 0.11198259 0.09955878 -0.06097625 -0.033245567 0.015811076 0.012970846 -0.040975746 -0.048225153 0.05766606 0.09670224 -0.011141604 0.17831486 -0.11153577 0.048254687 -0.18533388 -0.04566138 0.074891776 -0.054647796 0.11672627 -0.044085484 -0.1459785 -0.1229754 -0.20312127 0.062421773 0.0018632122 -0.11530122 0.034298886 0.12023265 -0.06908849 0.004410731 -0.11629084 -0.0794326 0.019172095 -0.10886406 0.06728107 -0.020586418 0.061900705 -0.041859146 0.006775234 0.0096931355 -0.089300185 0.059816316 -0.026533103 0.01096281 0.097042635 0.049333006 -0.08025882 0.019998513 0.117028944 0.065860204 0.117131025 -0.027065523 -0.039075967 0.08393824 -0.06891095 0.12070015 0.06250995 0.07232755 -0.10361266 0.1339831 0.10923858 0.0707481 0.031865314 -0.020941796 0.0228946 -0.023447007 0.031851735 -0.072303794 0.077854596 -0.15589933 -0.09110081 0.03121798 -0.15448378 -0.12336816 -0.0161203 0.064278744 -0.04736061 0.02324707 0.03973068 0.046941333 -0.028658854 -0.059439745 0.028055703 0.037434373 0.048685532 0.1430659 0.008523236 0.07441964 -0.008144004 0.050811563 -0.010506064 -0.030158393 -0.13349731 -0.080890514 0.08289721 0.034966417 0.005835139 -0.14883734 -0.045225482 0.051111933 0.074979685 -0.0034374062 0.071490504 -0.07236416 0.064326935 0.10484852 -0.042695664 -0.08905878 0.07872635 0.09097793 -0.10346478 0.018628098 -0.03360785 -0.10496945 -0.04529471 0.051615268 -0.044732824 0.06464338 0.02719698 -0.010278476 0.014654209 0.17263155 -0.08503225 -0.06303316 -0.08930154 -0.129001 0.020731566 -0.06361388 0.004866545 -0.03910737 0.10426504 0.055913355 -0.009762177 0.0460446 0.05434951 -0.03174511 -0.08584311 0.049699277 -0.04074668 -0.076603405 0.07898316 0.090933256 -0.030090611 0.06908176 -0.0004399471
security 0.10821334 0.17776872 0.035730958 -0.0016355912 -0.019526096 0.11809132 0.02395738 -0.024915718 -0.012489139 -0.015503387 0.0060383724 0.05019289 -0.12924482 0.10992952 -0.1151373 0.075567044 0.05626935 -0.042070117 -0.018343557 0.15204804 -0.0727534 0.09134276 9.272565e-05 -0.15654965 -0.11442511 0.17346466 -0.12393576 -0.028563993 -0.098593086 -0.05894711 0.04706008 0.118270405 0.07479372 -0.020186653 -0.058147456 0.057074618 0.07615887 -0.01798332 -0.083949424 -0.05457289 0.1183023 -0.13633835 0.112755105 -0.073403284 0.018816356 0.011499351 -0.07153328 0.044645935 -0.030335272 0.0038391608 0.008448235 0.13834189 -0.07475567 -0.0747806 -0.13778359 0.12167563 0.101659365 -0.06508313 -0.035699144 0.016152209 0.012620134 -0.041209232 -0.053533908 0.059324462 0.10137858 -0.008942643 0.18661323 -0.11615358 0.048770703 -0.1950269 -0.046154276 0.07437436 -0.058808338 0.12377903 -0.049013637 -0.1543359 -0.12980011 -0.21374834 0.06346209 0.001973077 -0.12194101 0.031557612 0.12698308 -0.073373064 0.0059309653 -0.12360708 -0.083874516 0.019551465 -0.110037886 0.06676364 -0.024408143 0.068713926 -0.039404284 0.008642898 0.011294199 -0.09055727 0.058866974 -0.027081762 0.009265966 0.099099286 0.048856314 -0.082035065 0.01855549 0.11898327 0.07041834 0.12497326 -0.031197699 -0.041253366 0.08909653 -0.07185952 0.12474312 0.06364047 0.078640364 -0.109115325 0.13801095 0.11457592 0.07633056 0.03322258 -0.017981535 0.02845335 -0.023912981 0.031029057 -0.07259669 0.07972669 -0.16205208 -0.09478093 0.029022852 -0.15988009 -0.13354242 -0.012788883 0.06719584 -0.049728606 0.023608025 0.042471014 0.04835766 -0.032701235 -0.058875218 0.026750699 0.036798332 0.051212717 0.14988479 0.00957049 0.076612666 -0.013257828 0.049200155 -0.014336146 -0.030449739 -0.13923459 -0.084077895 0.08354072 0.03934344 0.0059288293 -0.16040249 -0.045775488 0.05704182 0.07812317 -0.0029732757 0.07487979 -0.076834284 0.070175864 0.105711326 -0.048575502 -0.091854855 0.08049766 0.09718506 -0.10827982 0.014871882 -0.03617465 -0.110079706 -0.04981224 0.052844923 -0.046777558 0.06801869 0.02612723 -0.013627625 0.014733397 0.17781216 -0.09138853 -0.06654923 -0.09368112 -0.13406381 0.021503577 -0.06561174 0.004825167 -0.03808906 0.10638529 0.05845501 -0.008921091 0.048044868 0.05472878 -0.03567793 -0.08840945 0.049103253 -0.04189806 -0.08131562 0.0872462 0.09506256 -0.030472424 0.072030336 0.0004874679
budget 0.11642659 0.19188632 0.03506437 -0.00059855595 -0.02383802 0.1276274 0.02492938 -0.022791272 -0.011135719 -0.013877881 0.0067834975 0.057036225 -0.14144903 0.118912876 -0.12437338 0.08001333 0.065752536 -0.04245135 -0.01897637 0.16407025 -0.079320826 0.09723302 0.0010415284 -0.16862358 -0.12771776 0.18975739 -0.13706814 -0.029305607 -0.10652716 -0.06536057 0.054748997 0.12283465 0.07844777 -0.023360524 -0.05962262 0.06175576 0.08668339 -0.01736858 -0.08888612 -0.05729303 0.1272583 -0.14488754 0.12515521 -0.08063396 0.020492122 0.012985144 -0.081583634 0.044781793 -0.03146073 0.0067489296 0.0095302425 0.1447293 -0.08516088 -0.08360725 -0.15088579 0.13135673 0.11440623 -0.071090095 -0.03725235 0.021166872 0.01485819 -0.045255892 -0.05792738 0.066053234 0.104424536 -0.012322075 0.20064525 -0.121868655 0.051001307 -0.20821598 -0.052416056 0.08001536 -0.06455335 0.13529658 -0.052136343 -0.16315673 -0.13735695 -0.23189524 0.07224863 0.0027475746 -0.13319209 0.036877643 0.13767295 -0.0760696 0.0037942594 -0.12987001 -0.092266805 0.019438881 -0.11866422 0.07307434 -0.027878122 0.07405729 -0.0437888 0.011146761 0.008286816 -0.10137567 0.067389905 -0.02987737 0.013949159 0.10652496 0.055215348 -0.091774866 0.017926648 0.13384344 0.07543684 0.13535662 -0.03571641 -0.04238179 0.09848601 -0.07902175 0.13337733 0.07157045 0.08497667 -0.120480664 0.15236871 0.124602 0.08299726 0.035215072 -0.021094041 0.030809922 -0.02634341 0.030596493 -0.08308039 0.08640173 -0.1748401 -0.10094412 0.0320332 -0.17438021 -0.1425493 -0.012293035 0.06943349 -0.051399272 0.025406117 0.043311488 0.056168143 -0.03505737 -0.06715162 0.026806708 0.03974913 0.057661213 0.15759806 0.015179204 0.08460049 -0.01218186 0.05285048 -0.011280991 -0.032038268 -0.14934632 -0.09010866 0.09531766 0.039377965 0.008740312 -0.16836485 -0.052014533 0.059988774 0.08827291 -0.0014720506 0.075953454 -0.081605226 0.07683201 0.114315465 -0.052679095 -0.10270307 0.08997216 0.10259968 -0.11533646 0.018737692 -0.04089348 -0.119926915 -0.05366862 0.056768164 -0.05248338 0.07743377 0.03305746 -0.015571621 0.012174234 0.193196 -0.100216635 -0.06968394 -0.096305184 -0.1450377 0.02376548 -0.07045614 0.0043167225 -0.040935576 0.11922844 0.062230207 -0.010832522 0.05195049 0.0623081 -0.03821241 -0.097267844 0.05570944 -0.042781815 -0.08887511 0.09317783 0.101843335 -0.034527928 0.07494686 -0.0014430898
new 0.11309525 0.18443778 0.037271045 -0.0004629427 -0.021025382 0.123980366 0.02484834 -0.021716064 -0.01131378 -0.016404567 0.007775634 0.05472254 -0.1370855 0.11726844 -0.11500312 0.07777768 0.06273292 -0.04179077 -0.018820744 0.15820888 -0.07269313 0.09482786 -0.00090778834 -0.16398035 -0.123945266 0.17961386 -0.1333652 -0.031623542 -0.10053151 -0.06187047 0.050476585 0.12100161 0.073612 -0.020207582 -0.0592048 0.058133893 0.08349387 -0.018145824 -0.08810834 -0.054449737 0.12307517 -0.1419699 0.11581613 -0.076694675 0.020416334 0.014509982 -0.077160455 0.046787106 -0.029845595 0.008832311 0.007095225 0.14306878 -0.07908214 -0.08041744 -0.14617045 0.12562166 0.105946735 -0.06991414 -0.03629638 0.01670546 0.015090443 -0.043594405 -0.05634771 0.060855687 0.10335138 -0.0104163475 0.19518003 -0.12135995 0.05224214 -0.20376758 -0.05022347 0.08008799 -0.057620306 0.12924352 -0.051161297 -0.15713164 -0.13149999 -0.22512761 0.06745308 0.003146665 -0.12673044 0.036241714 0.13332792 -0.073105045 0.0062322975 -0.1289513 -0.08933232 0.018187193 -0.1160958 0.06986025 -0.027761191 0.06722972 -0.04355437 0.009369255 0.009016254 -0.09367814 0.062501475 -0.02490377 0.012226121 0.10187087 0.05017864 -0.08575304 0.021162335 0.12800746 0.0724577 0.1316158 -0.03264767 -0.042111102 0.09217811 -0.07846957 0.13066226 0.06751478 0.081888646 -0.11471411 0.14407969 0.118742354 0.07913842 0.03294207 -0.02182092 0.028695207 -0.023053456 0.03015084 -0.078604005 0.08468532 -0.16860431 -0.096527405 0.033983354 -0.17015226 -0.13497698 -0.013208106 0.070700996 -0.049966495 0.021334698 0.04143606 0.051579095 -0.03345318 -0.06489736 0.028288191 0.03885936 0.052114088 0.15520887 0.010622289 0.078464866 -0.009861019 0.055178303 -0.013142332 -0.03389618 -0.14486142 -0.088929206 0.09074818 0.04138554 0.008593961 -0.1666292 -0.05176997 0.05842293 0.08309066 -0.00045506365 0.07480977 -0.07944831 0.069671 0.111118704 -0.05063362 -0.1002189 0.08536398 0.10159857 -0.11356937 0.017210715 -0.036642995 -0.11754242 -0.0498547 0.05854513 -0.049387053 0.072042756 0.029058548 -0.011426677 0.013727308 0.18831739 -0.09636885 -0.06827287 -0.09780679 -0.13790041 0.023225289 -0.06904258 0.0009645439 -0.04292088 0.11385932 0.060154468 -0.00828301 0.047604006 0.058869325 -0.03960944 -0.09097575 0.055870045 -0.043689296 -0.086674444 0.08670711 0.09637566 -0.031962715 0.07297287 -0.0008463339
state 0.12976882 0.21245943 0.04327552 -0.004061356 -0.02929532 0.13893972 0.0290347 -0.026663082 -0.014358844 -0.017332684 0.009594331 0.06193361 -0.15879601 0.13224825 -0.13645586 0.09377564 0.06871588 -0.04676604 -0.02564874 0.18293327 -0.08414284 0.109028116 -0.0012385033 -0.18494171 -0.13752003 0.21021919 -0.14974704 -0.03531524 -0.112924285 -0.07430294 0.05996978 0.13974613 0.08903972 -0.023036893 -0.06933363 0.06652599 0.09368638 -0.021953257 -0.096549064 -0.06416336 0.14187184 -0.16279837 0.13808091 -0.08862062 0.020840187 0.01654201 -0.08632188 0.05455046 -0.033652276 0.0056960834 0.012951887 0.1623984 -0.09224459 -0.091165766 -0.16684893 0.14394227 0.12596905 -0.07597809 -0.040451895 0.022489507 0.015187352 -0.053835582 -0.0646894 0.07166189 0.12156582 -0.011188774 0.22020595 -0.13883872 0.056859836 -0.23437363 -0.05839393 0.09155964 -0.069329455 0.14670818 -0.05729474 -0.18399052 -0.1541881 -0.25498867 0.08096679 0.0048985686 -0.14464259 0.038005266 0.1559216 -0.08686796 0.005416202 -0.1438973 -0.102238454 0.019817285 -0.13419181 0.08171005 -0.027007312 0.08228402 -0.050518554 0.010915707 0.012568478 -0.11019496 0.0736941 -0.03350047 0.011989038 0.11718865 0.057317026 -0.099079296 0.02165786 0.14594986 0.08507088 0.15099725 -0.039302718 -0.051167592 0.10886004 -0.08999325 0.15028396 0.07844252 0.09229553 -0.1335284 0.16487308 0.13774097 0.09224624 0.04026455 -0.021759538 0.0327231 -0.025715455 0.039475758 -0.089376174 0.09820871 -0.19469993 -0.109988585 0.036267776 -0.19491023 -0.16091625 -0.017622182 0.07908453 -0.05816458 0.027251842 0.047809187 0.061532177 -0.03673529 -0.070281245 0.034260616 0.044770844 0.06359046 0.17788027 0.0122463135 0.088426225 -0.014020624 0.059664115 -0.01747085 -0.03861328 -0.16318011 -0.10138892 0.1060728 0.043033462 0.0110463835 -0.18827054 -0.05674141 0.066507794 0.094993204 -0.0016479968 0.08547925 -0.090626106 0.08022351 0.1293623 -0.05781129 -0.11112369 0.095201604 0.117509216 -0.12868755 0.02070482 -0.042736262 -0.13301627 -0.058037855 0.0677236 -0.06105943 0.084724404 0.036004294 -0.017878244 0.01672871 0.21396264 -0.1116932 -0.080566816 -0.11182967 -0.16033424 0.025053142 -0.074890636 0.0013674671 -0.048137013 0.12666571 0.07115201 -0.012940661 0.05288385 0.06796469 -0.042817976 -0.10629583 0.0600951 -0.049482957 -0.10030196 0.09949304 0.11369274 -0.03610388 0.08219028 -0.0006237935
mesh 0.12042982 0.20191038 0.04016648 -0.0015264893 -0.027376913 0.13266873 0.025132215 -0.023058906 -0.013010555 -0.01853759 0.005745275 0.058658153 -0.15447013 0.12797284 -0.12925805 0.08688486 0.06504572 -0.0429236 -0.024266966 0.17503402 -0.0835423 0.104999505 -0.0029267885 -0.18067725 -0.13177699 0.19731937 -0.14724976 -0.035904124 -0.11159023 -0.070287555 0.056294564 0.13255285 0.08564779 -0.022224769 -0.067921765 0.06035225 0.09193376 -0.019551544 -0.096045375 -0.057655517 0.13381879 -0.15475439 0.13133106 -0.08192477 0.023089428 0.014922267 -0.083982214 0.05013385 -0.031011209 0.010185269 0.0068375235 0.1562752 -0.087994985 -0.08893329 -0.1558958 0.13892367 0.11853393 -0.07277515 -0.03610179 0.017384874 0.017597275 -0.044943247 -0.0599 0.07026078 0.11606491 -0.012636156 0.21104193 -0.13417655 0.0570756 -0.2224497 -0.052550223 0.08784127 -0.06721684 0.14174873 -0.056130387 -0.17651561 -0.14757499 -0.24245602 0.072023235 0.00034773097 -0.13881205 0.041157257 0.14795752 -0.077750795 0.006317966 -0.14078167 -0.09642371 0.02280296 -0.12676267 0.08057341 -0.030300958 0.07867463 -0.05105655 0.008566432 0.012755634 -0.10178245 0.06550857 -0.02945607 0.014034318 0.11194915 0.059351116 -0.09815215 0.016620621 0.14307316 0.07755348 0.1450101 -0.033618186 -0.043038264 0.100730784 -0.087708645 0.14219378 0.0753918 0.0871176 -0.12662593 0.16163957 0.12811443 0.087176174 0.03797052 -0.022193672 0.031847514 -0.02612556 0.03875565 -0.08719088 0.09597764 -0.17909579 -0.101427615 0.039253533 -0.1855953 -0.15185706 -0.016835893 0.07846094 -0.05509004 0.027672172 0.043691777 0.0583664 -0.038450472 -0.07256485 0.03189563 0.04390468 0.06205995 0.17036386 0.011747978 0.084691726 -0.011838301 0.058533255 -0.014353359 -0.0321018 -0.16135292 -0.09770528 0.09759035 0.04433147 0.011432607 -0.18400821 -0.056725666 0.06573293 0.08908389 0.00082418363 0.08518236 -0.09102911 0.07973774 0.121280655 -0.05666783 -0.11100311 0.09317858 0.11357593 -0.12311687 0.017219523 -0.042129062 -0.12948921 -0.054987837 0.06584747 -0.055086263 0.08328864 0.035191946 -0.012429983 0.015252826 0.20757455 -0.10569033 -0.07767903 -0.10663759 -0.14896011 0.023124738 -0.07084045 0.001885529 -0.042934395 0.1247116 0.06898002 -0.01134778 0.0550804 0.06750562 -0.04352039 -0.09792744 0.060353063 -0.04612353 -0.093572095 0.10093833 0.10502979 -0.03171133 0.0803043 -0.002344586
urgent 0.058184486 0.0905835 0.017944187 0.00050567597 -0.009516567 0.06395807 0.015241593 -0.013950098 -0.008290849 -0.008614231 0.004677173 0.02930164 -0.071429424 0.057205483 -0.05889542 0.041105963 0.028695414 -0.020402124 -0.01220138 0.080646634 -0.03787338 0.04812264 0.0019175928 -0.07958206 -0.06276779 0.09064669 -0.06616752 -0.014240767 -0.04929055 -0.030266328 0.025857572 0.060026452 0.038808633 -0.009696572 -0.02971381 0.0288779 0.041766863 -0.0107254125 -0.041271042 -0.025345698 0.061995026 -0.06967202 0.060756966 -0.03797366 0.0074033015 0.006503043 -0.03918866 0.023686819 -0.01729909 0.004753151 0.0052997954 0.070436746 -0.042870227 -0.03986497 -0.07168029 0.06520603 0.055706464 -0.03405993 -0.019279938 0.00955153 0.008272862 -0.021982336 -0.026248556 0.033203546 0.051468816 -0.004566702 0.097152755 -0.06272228 0.027919428 -0.099945284 -0.02641891 0.041819282 -0.031286806 0.064967826 -0.023630882 -0.08235332 -0.067734994 -0.11448024 0.035427954 -0.00031165214 -0.061479043 0.018714877 0.06560902 -0.038853385 0.0026934517 -0.06373483 -0.04509036 0.0107025225 -0.058952812 0.034228653 -0.010398571 0.03329756 -0.019967165 0.005471003 0.0069211046 -0.046735797 0.029971963 -0.014791681 0.003966847 0.050783224 0.025430962 -0.042482115 0.011085286 0.06653258 0.037933752 0.06411319 -0.016921865 -0.019690104 0.046101395 -0.03938908 0.065796584 0.03610001 0.038708836 -0.05767861 0.07410665 0.06082084 0.039106008 0.018893994 -0.0126818875 0.012577044 -0.013303051 0.016575202 -0.039670546 0.044920165 -0.08495378 -0.049783804 0.017660616 -0.08841505 -0.071728475 -0.0077598584 0.034251392 -0.027165603 0.00992286 0.020719972 0.024158567 -0.018465525 -0.032748196 0.016009176 0.019968878 0.02511425 0.08057846 0.008760377 0.04161212 -0.0077980575 0.026019275 -0.005347745 -0.015534559 -0.07306862 -0.04752275 0.04391623 0.021155993 0.0043079946 -0.08396828 -0.024484813 0.031081809 0.042258285 -0.00065511256 0.036083445 -0.041889124 0.03423106 0.056013756 -0.02446572 -0.04748208 0.044683505 0.04940005 -0.056396704 0.011263614 -0.016862309 -0.060276605 -0.023914002 0.027264476 -0.024716685 0.037204437 0.012915155 -0.008193614 0.0070533934 0.09324315 -0.050811194 -0.03594957 -0.04675602 -0.07238665 0.010113364 -0.03351436 0.00036190983 -0.022173893 0.054787565 0.029155945 -0.003693814 0.026059296 0.03233828 -0.021293163 -0.04431232 0.025047261 -0.023621978 -0.044399638 0.044248383 0.049267452 -0.018404793 0.039502326 0.0005230423
arab 0.11737641 0.19894095 0.0357687 -0.0039047322 -0.022524424 0.13265353 0.027989473 -0.027360719 -0.015588379 -0.017120332 0.004874087 0.058912076 -0.14891392 0.12586401 -0.12940486 0.085484765 0.064847834 -0.04715741 -0.0228196 0.17343034 -0.07764639 0.10012564 -3.7080154e-05 -0.17315903 -0.12942833 0.19508538 -0.14001402 -0.036201745 -0.11024657 -0.068771124 0.0518608 0.13302977 0.08185897 -0.02130562 -0.06633969 0.0639574 0.09027528 -0.01924391 -0.09172745 -0.060786083 0.13033675 -0.1541528 0.12620361 -0.08221739 0.020681156 0.016755298 -0.085168615 0.049600333 -0.030710395 0.006032868 0.0117597 0.15268613 -0.089674495 -0.08645907 -0.15619628 0.13353467 0.11363148 -0.07344881 -0.034623448 0.020863013 0.013254595 -0.047881268 -0.061820116 0.065700404 0.11088872 -0.012134251 0.20585972 -0.12917864 0.055210195 -0.21913081 -0.05409055 0.08651176 -0.06273864 0.14109948 -0.05239569 -0.16919303 -0.144263 -0.23921601 0.074269004 0.005659069 -0.13476492 0.038066164 0.14579487 -0.08047544 0.0014116854 -0.1369323 -0.092825316 0.01818817 -0.122896455 0.077951394 -0.029646378 0.07304712 -0.047250096 0.008797332 0.012142426 -0.100271836 0.069618694 -0.030790782 0.013723227 0.111873984 0.055055473 -0.09243391 0.017768601 0.13821737 0.0795956 0.13940924 -0.0351185 -0.043492828 0.10381483 -0.08552102 0.13781409 0.07038733 0.08369107 -0.12318401 0.15397023 0.12464381 0.08688977 0.033675868 -0.021901986 0.027361035 -0.022997394 0.033498533 -0.08320446 0.09205821 -0.18301298 -0.10209265 0.03237215 -0.18419114 -0.15019976 -0.013984662 0.07467012 -0.054406397 0.023810582 0.045318935 0.055418186 -0.037623793 -0.06954307 0.030518247 0.04427368 0.05705987 0.16581446 0.015328413 0.08302812 -0.012879806 0.05790069 -0.011554461 -0.03596117 -0.1562138 -0.09524789 0.09561174 0.041383475 0.008280951 -0.17890935 -0.054901257 0.0607772 0.08858539 -0.0050559887 0.07913931 -0.08615706 0.079955064 0.119917594 -0.053089075 -0.10813017 0.09397375 0.10587232 -0.12284978 0.019926466 -0.03913394 -0.12540196 -0.05215044 0.06437057 -0.053074043 0.08076231 0.0344198 -0.013472559 0.013882553 0.20420802 -0.10091604 -0.073043235 -0.10099406 -0.15047601 0.026139032 -0.07252065 0.0047703753 -0.043798108 0.1216842 0.06237441 -0.0116395475 0.052677043 0.064164914 -0.04106952 -0.099922374 0.056170013 -0.04588192 -0.091376714 0.09612198 0.10307511 -0.03635193 0.07724675 0.00038997654
time 0.112315565 0.18711567 0.03723992 -0.0038196037 -0.026231386 0.12741882 0.029414255 -0.023898028 -0.014649353 -0.014155677 0.006666979 0.056523435 -0.14390354 0.12027218 -0.120196894 0.081115186 0.062563844 -0.045057815 -0.021850474 0.16307135 -0.07713381 0.098802455 0.00039355273 -0.16615278 -0.12326011 0.18520898 -0.1370825 -0.02955771 -0.10338633 -0.06602803 0.054125503 0.12609977 0.07825693 -0.022094872 -0.063464 0.059094276 0.08477195 -0.017786907 -0.0896969 -0.055919588 0.12582576 -0.14362004 0.12174105 -0.07890042 0.020833367 0.016534304 -0.08222027 0.044958927 -0.030353736 0.004205775 0.008389491 0.14924906 -0.08204483 -0.082285 -0.14952146 0.12904432 0.1089299 -0.0726517 -0.036404558 0.02108428 0.014378598 -0.047009893 -0.059687104 0.06640368 0.10743572 -0.010470633 0.20185478 -0.122570045 0.05379009 -0.20883203 -0.05197171 0.082943074 -0.06222834 0.13508107 -0.04969649 -0.16503024 -0.13701895 -0.23027152 0.06884594 0.004548592 -0.13206738 0.03610695 0.13804884 -0.078215815 0.0036368608 -0.13200977 -0.09140957 0.020238295 -0.119628176 0.07725006 -0.027532205 0.072797135 -0.04415366 0.0086355 0.011061634 -0.098435946 0.06717629 -0.029424189 0.012734318 0.10849269 0.05410869 -0.09047283 0.017474921 0.1320943 0.075610496 0.13635783 -0.034027528 -0.045367144 0.097054064 -0.08099486 0.13347551 0.06891146 0.08423135 -0.120051146 0.15119433 0.12223803 0.083229974 0.037155014 -0.02192412 0.02894276 -0.025014177 0.033886697 -0.08228032 0.08785731 -0.17043068 -0.101691045 0.030994322 -0.17611425 -0.14372733 -0.01661973 0.06893037 -0.053958394 0.025652183 0.044352494 0.055271454 -0.032394383 -0.063428864 0.029447036 0.03794324 0.056767695 0.16169065 0.011109144 0.081525974 -0.012037664 0.05342643 -0.0135663105 -0.032052003 -0.15142143 -0.091725275 0.09207712 0.03836829 0.0067691817 -0.17326306 -0.050062742 0.06315861 0.08795334 -0.0036216977 0.07886849 -0.08286575 0.07681276 0.11629856 -0.049200565 -0.10321325 0.08633228 0.105022535 -0.11422411 0.017974893 -0.03656051 -0.12105521 -0.054005224 0.057097826 -0.05293132 0.07718125 0.029437242 -0.015326695 0.012059862 0.19717474 -0.100636 -0.07051739 -0.09714541 -0.14133078 0.02212702 -0.06927753 0.004084442 -0.045051146 0.11842489 0.05964873 -0.0120576145 0.04700741 0.063448325 -0.038812738 -0.09264946 0.056259777 -0.04536078 -0.08664608 0.09077318 0.1012748 -0.03135185 0.07530481 -0.0018565283
support 0.09877358 0.1608488 0.029650802 -0.00435599 -0.021929689 0.10627871 0.023152571 -0.020370243 -0.012856112 -0.01130667 0.008221892 0.048061036 -0.118409425 0.10307112 -0.10234776 0.07150305 0.051261216 -0.038531624 -0.018395055 0.13865918 -0.0621227 0.083027706 0.0016268516 -0.14088516 -0.1030416 0.15765333 -0.11545491 -0.024974534 -0.084930874 -0.05655176 0.045634177 0.10400248 0.06650846 -0.016254067 -0.05322598 0.047934838 0.07021359 -0.014865987 -0.07514856 -0.04970476 0.10652179 -0.12226814 0.10029262 -0.06418686 0.015950622 0.010192082 -0.069109015 0.037047062 -0.025549237 0.007192191 0.009714946 0.12356415 -0.072147734 -0.067979254 -0.12514117 0.108626254 0.09270638 -0.058963783 -0.029389346 0.014038153 0.010646609 -0.039081562 -0.04804547 0.05428188 0.092378624 -0.011496843 0.16671643 -0.101496115 0.04526973 -0.17510115 -0.042061254 0.07087478 -0.051308785 0.113381825 -0.04508078 -0.13601641 -0.115859784 -0.19304688 0.06005955 0.0040381155 -0.10869207 0.031030113 0.11446818 -0.06559205 0.0006365724 -0.10836197 -0.07568974 0.01504599 -0.1024435 0.063498 -0.023134345 0.06098341 -0.0401673 0.008519592 0.007942551 -0.08127575 0.05326355 -0.023405397 0.007949125 0.08940999 0.042740848 -0.07796224 0.015435963 0.109044984 0.06315366 0.11136789 -0.026325746 -0.03823671 0.079448245 -0.06688215 0.112733886 0.05720536 0.06967573 -0.09776348 0.12311927 0.10079797 0.06815014 0.03136707 -0.017770818 0.024522599 -0.021897802 0.02589739 -0.06812875 0.0701539 -0.14456673 -0.08127695 0.026347468 -0.1439871 -0.120472156 -0.0101330625 0.058239885 -0.04219592 0.017896056 0.034119423 0.044386454 -0.02567479 -0.05488571 0.023672879 0.03594783 0.048831113 0.13145944 0.010533539 0.06947585 -0.008253027 0.04628274 -0.013220451 -0.026664177 -0.12311701 -0.07964208 0.07682276 0.033085294 0.009163545 -0.14521526 -0.04075848 0.04990612 0.07239035 -0.00016617944 0.06691145 -0.07253955 0.06327646 0.09701811 -0.041193448 -0.08269841 0.07258531 0.08724801 -0.09569302 0.013811152 -0.032928515 -0.09905088 -0.045943182 0.0490066 -0.042296223 0.061190974 0.02472798 -0.010725988 0.011503534 0.1617078 -0.08295527 -0.059089545 -0.08423759 -0.11979716 0.0208474 -0.05991526 0.0038161154 -0.038224168 0.09867607 0.052011143 -0.00904989 0.041701168 0.05084084 -0.03091683 -0.07733276 0.046164226 -0.03715899 -0.07599427 0.07729189 0.08241381 -0.028665049 0.061240602 0.0006449711
lebanese 0.09304563 0.15167761 0.02789159 -0.002887658 -0.017314311 0.10198757 0.020270592 -0.020731602 -0.010322308 -0.01049622 0.0070289187 0.04438592 -0.11221068 0.0968865 -0.09871507 0.06731082 0.04905096 -0.034536827 -0.017394882 0.13485044 -0.05983464 0.07587485 -0.0027992795 -0.13595955 -0.102935866 0.15151265 -0.10671249 -0.025280906 -0.08392049 -0.052481506 0.041622035 0.099154666 0.062583216 -0.019658491 -0.051408883 0.044905663 0.068030685 -0.013753957 -0.072462976 -0.044683818 0.0990805 -0.11943173 0.09951992 -0.062225576 0.013273501 0.010771797 -0.06612123 0.03605602 -0.021774681 0.0074202493 0.009462125 0.11863248 -0.06713303 -0.06561084 -0.119211726 0.10448917 0.09187875 -0.058705304 -0.030101685 0.014769482 0.008471505 -0.03526247 -0.048049785 0.051944714 0.08453179 -0.011038818 0.1620618 -0.097140394 0.04361686 -0.16661385 -0.039663997 0.06689398 -0.047662426 0.105634145 -0.04430371 -0.13078433 -0.10975831 -0.18362904 0.05493141 0.0017124602 -0.10627308 0.028576666 0.10871334 -0.061244383 0.0027176403 -0.105411164 -0.072595276 0.0136612505 -0.098632246 0.05838362 -0.022542614 0.057092708 -0.038184084 0.0071980413 0.009777799 -0.07759357 0.055095322 -0.022732306 0.008308925 0.088282466 0.045457803 -0.074163884 0.014981395 0.10590055 0.060879204 0.105727464 -0.028066559 -0.036696557 0.075644605 -0.06476363 0.10963254 0.0548289 0.06426135 -0.097940944 0.12158319 0.098827854 0.06453177 0.03035192 -0.018246876 0.023323528 -0.021803293 0.026134351 -0.0659235 0.0681104 -0.14067212 -0.08109216 0.025707887 -0.14012404 -0.11388734 -0.010977531 0.056307733 -0.042637713 0.01780139 0.037162926 0.043131385 -0.02728548 -0.05229472 0.02603932 0.031798862 0.046532232 0.13104612 0.009968273 0.06615694 -0.007603391 0.04513959 -0.009380589 -0.028085308 -0.11915239 -0.0729047 0.07259867 0.03354898 0.0051619434 -0.13714692 -0.04217931 0.049244914 0.07179293 -0.00011482149 0.062991135 -0.06858702 0.0623405 0.09044669 -0.04332338 -0.08433086 0.06892553 0.08392222 -0.09091757 0.016419772 -0.02983566 -0.09480248 -0.040849395 0.04939556 -0.04192165 0.05986778 0.025636546 -0.010707847 0.013722549 0.15711975 -0.081863604 -0.059886217 -0.0797942 -0.11500647 0.020517347 -0.055934023 0.002710481 -0.036944754 0.093671486 0.052352853 -0.010142522 0.03968498 0.051991876 -0.03080339 -0.07686939 0.045598634 -0.032290015 -0.0718009 0.07438556 0.07980045 -0.028333282 0.059316218 -0.0034848773
bs 0.106213026 0.17145084 0.03185131 -0.0026152893 -0.021488165 0.11353064 0.026415512 -0.020554319 -0.012692393 -0.016146172 0.0052212593 0.050892536 -0.13200088 0.11103832 -0.11285681 0.07692773 0.05704425 -0.038547646 -0.020375196 0.14968297 -0.068635 0.0871182 0.0018814444 -0.15126497 -0.11463144 0.17288896 -0.12466522 -0.030879429 -0.09757883 -0.060470372 0.04723092 0.11472911 0.07138628 -0.017777758 -0.058535144 0.051626474 0.07767956 -0.015106791 -0.079561375 -0.049428016 0.11448701 -0.13054793 0.11378327 -0.07094826 0.015220822 0.012885117 -0.07278474 0.042039227 -0.025363997 0.0056570093 0.0076692156 0.13519426 -0.0752371 -0.07388121 -0.13706994 0.116504475 0.09965974 -0.06531052 -0.0350351 0.016052812 0.011038709 -0.041991346 -0.050117575 0.060463224 0.099412546 -0.00805255 0.18189551 -0.11059143 0.048030023 -0.19341214 -0.044405073 0.07527284 -0.056355022 0.12446787 -0.04956495 -0.15058722 -0.12343755 -0.21002178 0.063468836 0.0051534036 -0.11888068 0.035601802 0.12535018 -0.071684174 0.003935198 -0.119864605 -0.08184938 0.01866725 -0.11168317 0.06664215 -0.025863029 0.066902705 -0.0402198 0.009373749 0.009343476 -0.08822474 0.059658553 -0.02737145 0.0136793405 0.09613068 0.05149548 -0.08440907 0.01799301 0.12054017 0.06939914 0.1210801 -0.030264838 -0.03932755 0.09086735 -0.0752529 0.122576684 0.061180145 0.07726852 -0.10850953 0.13692234 0.11265856 0.0776513 0.032771137 -0.020591762 0.024471564 -0.02433984 0.030790985 -0.07374782 0.08025992 -0.1562165 -0.091240965 0.028384259 -0.16236407 -0.13183601 -0.014584237 0.06348585 -0.047738835 0.02461635 0.038767055 0.047573622 -0.03334891 -0.058115747 0.026449466 0.03728838 0.051424116 0.14587404 0.010176632 0.07375125 -0.011453268 0.05096428 -0.013760097 -0.02772508 -0.13412847 -0.08580112 0.08716529 0.03936682 0.006693088 -0.15578529 -0.04426376 0.052801616 0.079532266 -0.0044932878 0.07249558 -0.07651923 0.06919175 0.105244085 -0.04743803 -0.0925259 0.08213842 0.09702195 -0.10813707 0.01734964 -0.036962483 -0.10883722 -0.047502343 0.053880416 -0.04589527 0.06883612 0.027984323 -0.011573703 0.015098644 0.17909986 -0.0923704 -0.06602992 -0.089044064 -0.12959339 0.022858698 -0.06335769 0.0053623193 -0.041266028 0.10605044 0.05679734 -0.009804033 0.043609884 0.056583583 -0.038035817 -0.085611366 0.049589228 -0.037616227 -0.079468146 0.086553946 0.09219187 -0.030541683 0.067515776 -0.0017550926
said 0.11846345 0.19418778 0.036990322 -0.0028257878 -0.024277331 0.13259016 0.027291588 -0.023679925 -0.015908191 -0.015522449 0.008398787 0.057131745 -0.14825396 0.12456366 -0.12684973 0.08693179 0.06431297 -0.04410374 -0.02460446 0.16929093 -0.078594424 0.09792583 0.0007255106 -0.1732954 -0.13144006 0.19428104 -0.14024751 -0.03111089 -0.10931634 -0.069293864 0.053140786 0.13095291 0.08050132 -0.020927688 -0.06401324 0.060773708 0.08512117 -0.017649965 -0.09065974 -0.060393553 0.12829795 -0.14939837 0.1274858 -0.08265087 0.01946974 0.013516969 -0.08133074 0.045986217 -0.03269169 0.0053859157 0.011511729 0.15118591 -0.08641779 -0.085913286 -0.1541726 0.13238975 0.11441632 -0.07322134 -0.03464576 0.021751411 0.014407676 -0.0459527 -0.059734628 0.0687795 0.10819463 -0.01086846 0.20594518 -0.12885395 0.052294012 -0.21727431 -0.052596573 0.08415594 -0.06555737 0.13788883 -0.05576162 -0.1728634 -0.14168437 -0.23848836 0.07257619 0.0031457613 -0.13248298 0.037988726 0.14283763 -0.0789772 0.006021597 -0.13833001 -0.09283334 0.022238523 -0.12509276 0.07629319 -0.027664358 0.075654835 -0.045359023 0.010537613 0.0085285315 -0.103094466 0.06604291 -0.029501764 0.014834076 0.108867936 0.05474594 -0.09245693 0.02225755 0.13580108 0.0773498 0.13935152 -0.03405755 -0.04688348 0.09902603 -0.08098162 0.1395172 0.07361523 0.087114245 -0.123710304 0.15304425 0.12566102 0.08649449 0.03418593 -0.023944164 0.029197304 -0.025057858 0.03377811 -0.08434771 0.08993193 -0.17960055 -0.102061555 0.032587867 -0.18077068 -0.14517982 -0.016067397 0.073442444 -0.05272362 0.027274638 0.044551667 0.054783296 -0.033127837 -0.06946152 0.03169481 0.043092385 0.056204084 0.16489147 0.014389633 0.0840224 -0.00993418 0.057861235 -0.013063742 -0.035198428 -0.15555157 -0.09593212 0.09807684 0.04216311 0.0075411233 -0.1754355 -0.0513932 0.06322368 0.09003552 -0.0047543203 0.08302958 -0.08579219 0.077969946 0.12112543 -0.05313528 -0.10697129 0.08791159 0.10678924 -0.1209225 0.01950476 -0.0387266 -0.12089402 -0.05388963 0.061457362 -0.053773824 0.07625528 0.03030112 -0.011483243 0.014808448 0.20222381 -0.10281089 -0.07424786 -0.10161625 -0.15040989 0.02516793 -0.07083537 0.004643032 -0.045441028 0.1202309 0.062192407 -0.010684422 0.053460065 0.06540267 -0.039872013 -0.09636738 0.056697115 -0.046538334 -0.090522856 0.096975565 0.10164135 -0.035861697 0.07575591 -0.003860065
know 0.10981025 0.18128444 0.036438644 -0.00023251532 -0.024328006 0.11805293 0.027712531 -0.024402905 -0.012919954 -0.017350238 0.0074875928 0.05477819 -0.13261716 0.111508995 -0.114314616 0.07902778 0.062832676 -0.040313393 -0.019728115 0.15747623 -0.072633445 0.09145796 -6.9539674e-05 -0.15858781 -0.12054073 0.17975608 -0.1289809 -0.02957055 -0.09920447 -0.061613142 0.04830869 0.117312245 0.07260288 -0.021853343 -0.05975824 0.05624337 0.07838914 -0.017522953 -0.08398806 -0.05612687 0.12013143 -0.13914254 0.11827274 -0.07524907 0.02057467 0.013434856 -0.07487782 0.045699425 -0.028514193 0.0066134324 0.011245355 0.14096484 -0.07903722 -0.0766417 -0.14323129 0.123042576 0.10827689 -0.06442885 -0.033441342 0.018873734 0.010841568 -0.044892922 -0.05398743 0.060513463 0.10268351 -0.012854139 0.19189972 -0.11935063 0.050481863 -0.19942793 -0.046871863 0.076787926 -0.059482243 0.12879187 -0.051413983 -0.15652186 -0.13211034 -0.22067544 0.06895706 0.0048579695 -0.12266254 0.03645719 0.13059203 -0.07386879 0.005213278 -0.12563457 -0.08806085 0.019560246 -0.11411318 0.06965675 -0.023147672 0.069743894 -0.041648623 0.010172176 0.009394019 -0.0935695 0.06298897 -0.027011752 0.014007676 0.10286341 0.050956894 -0.08614491 0.016861316 0.12303923 0.07273937 0.12974516 -0.030873222 -0.03988903 0.09392669 -0.074699625 0.12954235 0.06332395 0.0784766 -0.112987705 0.14434424 0.11352072 0.079959385 0.031528845 -0.018669693 0.025160264 -0.023871087 0.03247201 -0.07683843 0.080192655 -0.16529693 -0.09561627 0.03281234 -0.16454174 -0.13491334 -0.012587368 0.06619959 -0.050463535 0.020627452 0.0432862 0.052082054 -0.032010317 -0.063830934 0.02823368 0.038052093 0.055911843 0.15350826 0.013075847 0.07802742 -0.0134120425 0.049547248 -0.01553989 -0.03098971 -0.14207757 -0.088027924 0.088836074 0.039182566 0.009967794 -0.16272427 -0.045977972 0.05786453 0.082806684 -0.000261138 0.07519508 -0.07955737 0.070933595 0.10953491 -0.050003164 -0.09805892 0.08312079 0.09699708 -0.11231933 0.016217789 -0.03815768 -0.11522611 -0.05203746 0.059451446 -0.048444424 0.071764454 0.028608344 -0.014981485 0.012807231 0.18720949 -0.096500546 -0.06679327 -0.09555697 -0.1375333 0.02385061 -0.06497095 0.0018671557 -0.040665973 0.10993511 0.056819197 -0.009455401 0.04628849 0.057906963 -0.037695047 -0.087299414 0.054580938 -0.0409872 -0.08475056 0.09020804 0.09366774 -0.034133226 0.07324929 -0.0009771718
